-74.015	40.7054
-74.0141	40.7012
-74.0165	40.7032
-74.0165	40.7021
-74.0177	40.705
-74.0149	40.7018
-74.0142	40.7045
-74.0162	40.7032
-74.0181	40.7079
-74.0182	40.7088
-74.0155	40.702
-74.0069	40.7038
-74.0159	40.7018
-74.0137	40.705
-74.0164	40.7034
-74.0147	40.704
-74.0151	40.7065
-74.0167	40.7048
-74.0171	40.7041
-74.0146	40.7044
-73.929	40.6149
-74.0092	40.7025
-74.0174	40.7038
-74.0168	40.7032
-74.0151	40.7019
-74.0159	40.7091
-73.343	40.9208
-74.0163	40.7021
-74.0095	40.7046
-74.0152	40.7019
-74.0141	40.7014
-74.0162	40.7022
-74.0124	40.7015
-74.0164	40.7026
-74.0129	40.7077
-74.0156	40.7036
-74.0185	40.7043
-74.0153	40.7047
-74.0175	40.7086
-74.0163	40.703
-74.0078	40.7033
-74.0163	40.702
-74.0179	40.7064
-74.0168	40.7029
-74.0181	40.705
-74.0142	40.7015
-74.0157	40.7015
-74.0171	40.7041
-74.0172	40.7029
-74.017	40.7035
-74.0147	40.7021
-74.0132	40.7059
-74.0091	40.702
-74.0131	40.7013
-74.0169	40.7046
-74.0179	40.7043
-74.0167	40.7047
-74.015	40.7022
-74.0142	40.702
-74.0144	40.7026
-74.0158	40.7071
-73.7963	41.0874
-74.0166	40.7033
-74.0182	40.7061
-74.018	40.7054
-74.0151	40.7017
-74.0165	40.7024
-74.0173	40.7036
-74.0168	40.7039
-74.0121	40.709
-74.018	40.7045
-74.013	40.7022
-74.0153	40.7016
-73.4385	40.8614
-74.0149	40.7067
-74.0176	40.704
-74.0159	40.7046
-74.0144	40.7014
-74.0138	40.705
-74.016	40.7024
-74.0162	40.708
-74.0134	40.7053
-74.0161	40.7018
-74.0169	40.7031
-74.0133	40.7071
-74.0148	40.7018
-74.0135	40.7067
-74.0157	40.7016
-74.0183	40.7087
-74.0165	40.7027
-74.0163	40.7029
-74.014	40.702
-74.0112	40.7083
-74.0168	40.7026
-74.0109	40.7044
-74.0162	40.7039
-74.016	40.7027
-74.0173	40.7035
-74.0126	40.7016
-74.0151	40.7011
-74.0167	40.7029
-74.0169	40.7042
-74.0087	40.7041
-74.0151	40.7016
-74.0168	40.7027
-74.0161	40.7041
-74.018	40.7064
-74.0139	40.7014
-74.0167	40.7033
-74.0151	40.7045
-74.0185	40.7067
-74.0157	40.7035
-74.0154	40.7018
-74.0123	40.7028
-74.0145	40.7028
-74.0163	40.703
-74.0144	40.7043
-74.0147	40.7014
-74.0139	40.7051
-74.0183	40.7053
-74.0158	40.7044
-74.0171	40.704
-74.0156	40.7018
-74.0105	40.7046
-74.0096	40.7081
-74.0161	40.7019
-74.0161	40.7025
-73.8736	40.9083
-74.0145	40.7043
-74.0147	40.7017
-74.0168	40.7051
-74.018	40.7059
-74.0159	40.7019
-74.0146	40.7021
-74.0175	40.7033
-74.0173	40.7045
-74.0146	40.704
-74.0159	40.7043
-74.008	40.708
-74.0024	41.0929
-74.0169	40.7041
-74.0165	40.7032
-74.0156	40.707
-73.767	41.0467
-74.0138	40.7066
-74.0165	40.7038
-74.0167	40.7024
-74.0164	40.7049
-74.0147	40.7041
-74.0166	40.7037
-74.0145	40.7042
-74.0175	40.7038
-74.0169	40.703
-74.0162	40.7041
-74.0158	40.7047
-74.0141	40.7064
-74.0147	40.7017
-74.0123	40.7013
-74.0168	40.7028
-74.0155	40.7045
-74.0164	40.7034
-74.0153	40.7016
-74.0164	40.7021
-74.0173	40.7037
-74.1665	40.5537
-74.0132	40.7013
-74.0103	40.702
-74.0093	40.7022
-74.007	40.7049
-74.0158	40.7051
-74.0168	40.7048
-74.0157	40.7017
-74.0157	40.7021
-74.0141	40.7012
-73.8025	40.8911
-74.0163	40.7025
-74.017	40.7027
-74.0175	40.705
-74.0171	40.7034
-74.0138	40.7067
-74.0105	40.7017
-73.8578	41.0192
-74.0148	40.7019
-74.0094	40.7023
-74.0141	40.7046
-74.0163	40.7035
-74.0159	40.7043
-74.0131	40.7018
-74.0171	40.7041
-74.0174	40.704
-74.0141	40.7024
-74.0095	40.7021
-74.0154	40.7021
-74.0143	40.7015
-74.016	40.7026
-74.0152	40.7014
-74.0129	40.7024
-73.6054	40.6759
-74.0162	40.7027
-74.0169	40.7035
-74.0166	40.7041
-74.0145	40.7043
-74.0151	40.7057
-74.0177	40.7045
-74.0175	40.7037
-74.0167	40.7047
-74.0167	40.7093
-74.0163	40.7028
-74.0094	40.7024
-74.0175	40.7039
-74.0157	40.7047
-74.0186	40.7048
-74.0139	40.7023
-74.0135	40.707
-74.0175	40.7038
-74.0064	40.7075
-74.0173	40.704
-74.016	40.7017
-74.0157	40.7092
-74.0152	40.7021
-74.0162	40.7034
-74.0157	40.7035
-74.0181	40.7087
-74.0137	40.708
-74.0167	40.7043
-74.0191	40.7064
-74.0154	40.7047
-74.0156	40.7015
-74.0182	40.7044
-74.0155	40.7073
-74.0191	40.7062
-74.0129	40.7022
-74.0145	40.7032
-73.5288	40.8171
-74.0155	40.7016
-74.0154	40.7049
-74.0171	40.7041
-74.0155	40.7019
-74.0155	40.7076
-74.0155	40.7019
-74.0165	40.703
-74.0143	40.7024
-74.0144	40.7015
-74.0174	40.7033
-74.0169	40.7036
-74.0163	40.7022
-74.0182	40.7047
-74.0171	40.7047
-74.0165	40.7025
-74.0172	40.7074
-74.0164	40.7041
-74.0146	40.7035
-74.0177	40.7036
-74.0153	40.7053
-74.015	40.7018
-74.017	40.709
-74.01	40.7022
-74.0165	40.7028
-74.0165	40.7027
-74.0182	40.7051
-74.0142	40.7013
-74.0159	40.7017
-74.0171	40.704
-74.0149	40.7044
-74.0163	40.7041
-74.0184	40.7089
-74.0104	40.7017
-74.0077	40.7043
-74.0132	40.7012
-74.0165	40.704
-74.0178	40.708
-74.0061	40.7045
-74.017	40.7044
-74.0147	40.7017
-74.0154	40.709
-74.0083	40.7077
-74.0091	40.7084
-74.0183	40.7043
-74.0162	40.706
-74.009	40.7032
-74.0145	40.702
-74.0146	40.7035
-74.018	40.7055
-73.6868	40.7135
-74.0171	40.7033
-73.7612	40.9144
-74.016	40.7065
-74.0101	40.7018
-74.0154	40.7043
-74.0152	40.7065
-74.0154	40.7018
-74.0164	40.7023
-74.017	40.7031
-74.016	40.7072
-74.0128	40.7013
-74.2206	40.5499
-74.0128	40.7018
-74.0167	40.705
-74.017	40.704
-74.0155	40.7016
-74.0161	40.7019
-74.0156	40.7076
-74.0162	40.7027
-74.0164	40.7046
-74.0142	40.7013
-74.0148	40.7016
-74.0134	40.7057
-74.0155	40.7019
-74.0173	40.7028
-74.0136	40.707
-74.008	40.7081
-74.0172	40.7036
-74.0165	40.7029
-74.0139	40.7021
-74.017	40.7029
-74.016	40.7035
-74.0149	40.7022
-74.0168	40.7037
-74.0177	40.7038
-74.0174	40.7038
-74.0165	40.703
-74.0178	40.7056
-74.0162	40.7045
-74.0151	40.7085
-74.0142	40.7064
-74.0146	40.7017
-74.0149	40.7015
-74.0166	40.7026
-74.0073	40.7072
-74.0086	40.7029
-74.0147	40.7044
-74.018	40.7062
-74.0139	40.7014
-74.0127	40.7013
-74.0166	40.7046
-74.0082	40.7078
-74.0158	40.7018
-74.0175	40.7036
-73.7196	40.6648
-74.0151	40.7018
-74.015	40.7016
-74.0189	40.7068
-74.0109	40.7045
-74.011	40.7016
-74.0159	40.7044
-74.017	40.7059
-74.0158	40.7018
-74.016	40.7022
-74.0164	40.7026
-74.0147	40.7043
-74.0154	40.7012
-74.0171	40.7034
-74.0159	40.7018
-74.0148	40.702
-74.0131	40.7023
-74.0175	40.704
-74.0173	40.7036
-74.017	40.7031
-74.0142	40.7063
-74.0073	40.7036
-74.0172	40.7037
-74.0102	40.7018
-74.0165	40.7023
-74.0148	40.7037
-74.0147	40.7017
-74.0162	40.7023
-74.0175	40.7037
-74.0168	40.7028
-74.0162	40.7044
-74.0149	40.7045
-74.0151	40.7069
-73.9062	40.9248
-73.5124	40.7829
-74.0137	40.7067
-74.0143	40.7022
-74.0123	40.7013
-74.0087	40.7076
-74.0151	40.7013
-74.0163	40.7027
-74.0133	40.7018
-74.0164	40.7046
-74.0112	40.7018
-74.0141	40.7013
-74.0164	40.7034
-74.0172	40.7029
-74.0156	40.7045
-74.0146	40.7062
-74.0137	40.7053
-74.0165	40.7072
-74.0067	40.7067
-74.0166	40.705
-74.0089	40.704
-74.0168	40.7049
-74.0157	40.7017
-74.0149	40.7072
-74.0188	40.7071
-74.0171	40.7034
-74.0144	40.7045
-73.5081	40.7553
-73.5682	40.7174
-74.0136	40.7054
-74.0173	40.7038
-74.0169	40.7042
-74.0174	40.7042
-74.0155	40.702
-74.0104	40.7017
-74.0155	40.7019
-74.0138	40.7064
-74.0147	40.7016
-74.0137	40.7051
-74.0161	40.7025
-74.0152	40.7011
-74.0162	40.7026
-74.0131	40.7078
-74.0173	40.705
-74.0168	40.7033
-74.0145	40.7044
-74.015	40.7069
-74.0178	40.7039
-74.0158	40.7048
-73.8069	40.5898
-74.0164	40.703
-74.009	40.7026
-74.0155	40.7013
-74.0164	40.7046
-74.0169	40.7029
-74.0181	40.705
-74.0142	40.7025
-74.0141	40.7068
-74.0157	40.7015
-74.0168	40.7041
-73.8267	40.9327
-74.0156	40.7013
-74.0171	40.7047
-74.017	40.7035
-74.0151	40.702
-74.0169	40.7039
-74.0065	40.7082
-74.0173	40.7075
-74.0148	40.7014
-74.0121	40.7013
-74.0177	40.7045
-74.0165	40.705
-74.015	40.7022
-74.0179	40.7058
-74.0162	40.7044
-74.0144	40.7028
-74.0178	40.7062
-74.0153	40.7016
-73.8757	40.6505
-74.0136	40.7066
-74.0174	40.7085
-74.0166	40.7025
-74.0169	40.7049
-74.0166	40.704
-73.6331	40.6987
-74.0163	40.7061
-74.0151	40.7017
-74.017	40.703
-74.0151	40.7058
-74.0176	40.704
-74.0149	40.7016
-74.0162	40.7023
-73.9648	41.0935
-74.0169	40.7046
-74.0156	40.7014
-74.0169	40.7038
-74.0163	40.7072
-74.0165	40.7046
-74.0147	40.7037
-74.0083	40.7077
-74.0155	40.7015
-74.008	40.7032
-74.0165	40.7027
-74.0164	40.7027
-74.0185	40.7053
-74.0141	40.7013
-74.0107	40.7071
-74.0105	40.7092
-74.0168	40.7027
-74.0151	40.7038
-74.0182	40.7087
-74.0093	40.7022
-74.0152	40.7037
-73.7931	40.7008
-74.0181	40.7087
-74.0096	40.7019
-74.0179	40.7059
-74.0164	40.7043
-74.0166	40.7028
-74.017	40.7042
-74.0097	40.7088
-74.0143	40.7024
-74.0088	40.7029
-74.0146	40.7018
-74.015	40.7039
-73.4221	40.6856
-74.0181	40.7053
-74.0169	40.7047
-74.0137	40.7023
-74.0069	40.7036
-74.0166	40.7033
-74.0145	40.7036
-74.0157	40.7037
-74.0125	40.7014
-74.016	40.7063
-74.0117	40.705
-74.0155	40.7018
-73.5311	40.7035
-74.0155	40.7073
-74.0163	40.7024
-74.0166	40.703
-74.0146	40.7067
-74.014	40.7013
-74.0127	40.7017
-74.0088	40.704
-74.0154	40.7017
-74.0159	40.702
-74.0149	40.7066
-74.0162	40.7023
-74.0148	40.7016
-74.0171	40.7035
-73.8626	41.0842
-74.0157	40.7021
-74.0174	40.7049
-74.0151	40.7022
-74.0146	40.7041
-74.0062	40.7062
-74.0167	40.7038
-74.0154	40.7077
-73.6084	40.8396
-74.0068	40.7049
-74.0175	40.7035
-74.017	40.7028
-74.0159	40.7025
-74.0065	40.7074
-74.0145	40.7022
-73.7181	41.091
-74.0166	40.7037
-74.0173	40.7038
-74.0167	40.7029
-73.7839	40.6443
-74.0163	40.7044
-73.8683	41.0178
-74.0156	40.7045
-74.0143	40.7047
-74.0155	40.7015
-74.0061	40.7043
-74.0141	40.7015
-74.0152	40.7014
-74.0165	40.7027
-74.0159	40.7072
-74.0168	40.705
-74.0152	40.7047
-74.0128	40.7016
-74.0137	40.7024
-74.0167	40.7038
-74.0191	40.7066
-74.014	40.7014
-74.0173	40.7037
-74.0144	40.7013
-74.0072	40.7038
-74.0155	40.7071
-74.0158	40.7018
-74.0162	40.7021
-74.0165	40.7025
-74.0164	40.7021
-74.0137	40.7051
-74.0152	40.7021
-73.377	40.8399
-74.0101	40.702
-74.0108	40.7041
-73.9798	40.6258
-74.0131	40.7059
-74.014	40.702
-74.0163	40.7033
-74.0172	40.705
-74.0073	40.7052
-74.0078	40.7033
-74.0168	40.7041
-74.0172	40.7042
-74.0161	40.7023
-74.0165	40.7032
-74.0148	40.7033
-74.0161	40.7016
-74.0155	40.7022
-73.8041	41.0453
-74.0155	40.7022
-74.0086	40.7038
-74.0166	40.7037
-74.0161	40.7024
-74.0155	40.7013
-74.0168	40.7029
-74.0176	40.7052
-74.0163	40.704
-74.0146	40.7045
-74.0148	40.7068
-74.0147	40.7018
-74.0106	40.7017
-74.0151	40.7012
-74.0162	40.7028
-74.0138	40.7015
-74.0187	40.7049
-74.0141	40.7068
-74.0171	40.7041
-74.0166	40.7037
-74.0168	40.7024
-74.0149	40.7018
-74.0143	40.7043
-74.0162	40.7031
-74.0136	40.7049
-74.0182	40.7088
-74.0155	40.702
-74.0108	40.7041
-74.0156	40.7021
-74.0158	40.7017
-74.016	40.7042
-74.0136	40.7049
-74.0146	40.7042
-74.0144	40.7015
-74.017	40.7048
-74.0174	40.7039
-74.0138	40.7024
-74.0174	40.7039
-74.017	40.7041
-74.0167	40.7032
-74.0153	40.7021
-74.0073	40.7073
-74.0159	40.7091
-74.0149	40.7018
-74.0157	40.7016
-74.0153	40.7019
-74.0149	40.7016
-74.0141	40.7014
-74.0136	40.7051
-74.0161	40.7024
-74.015	40.7012
-74.0163	40.7025
-74.013	40.7077
-74.0162	40.704
-74.0154	40.7083
-73.7865	40.6851
-74.0179	40.7041
-74.0153	40.7047
-74.0171	40.7091
-74.0164	40.703
-74.0103	40.702
-74.0162	40.7019
-74.0178	40.7064
-74.0168	40.7029
-74.0184	40.7053
-74.0142	40.7015
-74.0163	40.7019
-74.0156	40.7014
-74.0169	40.7025
-74.0147	40.7021
-74.0131	40.7061
-74.0092	40.702
-74.0166	40.7046
-74.0087	40.7041
-74.017	40.7043
-74.0175	40.7044
-74.0165	40.705
-74.015	40.7022
-74.0141	40.7019
-74.0143	40.7025
-74.0153	40.707
-74.0171	40.7033
-74.0131	40.7075
-74.0145	40.7061
-74.0151	40.7018
-74.0138	40.7064
-74.0165	40.7026
-74.0173	40.7036
-74.0167	40.7039
-74.018	40.7044
-73.9416	41.0699
-74.0165	40.705
-74.0153	40.7016
-74.0141	40.7062
-74.0156	40.7075
-74.0177	40.704
-73.5117	40.869
-74.0171	40.7035
-74.0159	40.7025
-74.016	40.7079
-74.0134	40.7046
-73.9061	40.7001
-74.0171	40.7032
-74.0139	40.7071
-74.0169	40.7043
-74.0144	40.7026
-74.0136	40.7067
-74.0075	40.7072
-74.0151	40.7018
-74.0157	40.7016
-74.0165	40.7027
-74.0163	40.7029
-74.0141	40.702
-74.0113	40.7083
-74.0168	40.7026
-74.009	40.7042
-73.8779	40.6445
-74.0162	40.7038
-74.0168	40.7033
-74.0157	40.7024
-74.015	40.7011
-73.6994	41.0529
-74.0163	40.7029
-74.0093	40.7021
-74.0164	40.7046
-74.009	40.7042
-74.015	40.7016
-74.0133	40.7053
-74.0168	40.7027
-74.0084	40.7032
-74.0162	40.7039
-74.0176	40.7069
-74.015	40.7046
-74.0154	40.7017
-74.0129	40.7031
-74.0164	40.7031
-74.0167	40.7045
-74.0138	40.7053
-74.0154	40.7075
-74.0183	40.7053
-74.0189	40.7069
-74.0161	40.7017
-74.0156	40.7019
-74.0099	40.7081
-74.0161	40.7019
-74.0161	40.7025
-74.0086	40.7073
-74.0148	40.7017
-74.0167	40.705
-74.0171	40.7035
-74.0158	40.7019
-74.0147	40.7021
-74.0166	40.7049
-73.766	41.0566
-74.0176	40.7034
-74.0173	40.7044
-74.0145	40.7041
-74.0158	40.7046
-74.0068	40.7066
-74.0169	40.7041
-74.0163	40.7033
-74.0157	40.7051
-74.0165	40.7038
-74.0166	40.7024
-74.0156	40.7013
-74.0156	40.7023
-74.0147	40.7042
-74.0165	40.7024
-74.0173	40.7038
-74.0168	40.7029
-74.0161	40.7042
-74.0175	40.7032
-74.0146	40.7048
-74.0142	40.7021
-74.0124	40.7014
-74.0152	40.7013
-74.0132	40.7041
-74.0168	40.7028
-74.0185	40.7064
-74.0154	40.7045
-74.0189	40.705
-74.0171	40.7036
-74.0165	40.7022
-74.0175	40.704
-73.985	40.7767
-74.0165	40.7042
-74.0073	40.7051
-74.0102	40.702
-74.0164	40.7052
-74.0169	40.7048
-74.0158	40.7018
-74.0162	40.7019
-74.0148	40.7014
-74.0162	40.7025
-74.0168	40.7026
-74.0161	40.7073
-74.017	40.7034
-74.0136	40.7068
-73.7598	40.6829
-74.0149	40.7018
-74.0106	40.7019
-74.0157	40.7021
-74.0147	40.7073
-74.0132	40.7046
-74.0163	40.7034
-74.0163	40.704
-74.0171	40.7041
-74.0175	40.704
-74.0182	40.7044
-74.0145	40.7021
-74.0153	40.7076
-73.8678	40.8777
-74.0142	40.7024
-74.0068	40.7038
-74.0177	40.7039
-74.0152	40.7021
-74.0135	40.705
-74.016	40.7025
-73.9907	40.7346
-74.0152	40.7014
-74.0162	40.7027
-74.0169	40.7035
-74.0166	40.7041
-74.0145	40.7042
-74.0152	40.7071
-74.0175	40.7037
-74.0167	40.7047
-74.0171	40.7091
-74.0163	40.7028
-74.0122	40.7015
-74.0175	40.704
-74.0151	40.7046
-74.0139	40.7023
-74.0088	40.7041
-74.0148	40.7057
-74.014	40.7012
-74.0175	40.7038
-74.0083	40.7027
-74.0172	40.7041
-74.0161	40.7016
-74.0174	40.7048
-74.0089	40.709
-74.015	40.7089
-74.015	40.702
-74.0158	40.7035
-74.0101	40.7021
-74.0182	40.7087
-74.0136	40.708
-74.0127	40.7013
-74.0163	40.7047
-74.0156	40.7015
-74.0146	40.7065
-74.0094	40.7072
-74.0182	40.7045
-74.0167	40.7066
-74.0119	40.7066
-74.0146	40.7039
-74.0145	40.7033
-74.0153	40.7011
-74.0166	40.7049
-74.0171	40.7041
-73.6351	40.862
-74.0147	40.707
-74.0153	40.7016
-74.0165	40.703
-74.0143	40.7024
-74.0144	40.7015
-74.0173	40.7033
-74.0163	40.7022
-74.0163	40.7044
-73.5662	40.6051
-74.0154	40.7013
-74.0164	40.7025
-74.017	40.7074
-74.0164	40.7042
-74.0146	40.704
-74.0149	40.7018
-74.0076	40.7031
-74.0188	40.7065
-74.0165	40.7028
-74.0165	40.7026
-74.0181	40.7051
-74.0143	40.7013
-74.0159	40.7017
-73.915	40.7925
-74.0175	40.7044
-74.0169	40.7035
-74.0145	40.7022
-74.0137	40.7049
-74.0111	40.7015
-74.0155	40.7021
-74.0163	40.7047
-74.0165	40.704
-74.0171	40.7044
-74.0146	40.7017
-74.0183	40.7043
-74.0161	40.7064
-74.015	40.7021
-74.0143	40.7022
-74.014	40.7015
-74.016	40.7066
-74.0123	40.7012
-74.0153	40.7018
-74.0163	40.7023
-74.0171	40.7031
-74.0152	40.7016
-74.0175	40.704
-74.0155	40.7016
-74.0149	40.7068
-74.0164	40.7026
-74.0163	40.7046
-74.0141	40.7014
-74.0148	40.7016
-74.0155	40.7021
-74.0169	40.7024
-74.018	40.707
-74.0147	40.7017
-74.006	40.7063
-74.0172	40.7033
-74.0078	40.7033
-74.0089	40.704
-74.0165	40.7029
-74.0139	40.7021
-74.017	40.7029
-74.017	40.7041
-74.0151	40.7045
-74.0163	40.7031
-74.0151	40.7022
-74.0103	40.7034
-73.9561	40.8114
-74.0172	40.7033
-74.0167	40.7037
-74.0082	40.7053
-74.0177	40.7037
-74.0174	40.7038
-74.0165	40.703
-74.0187	40.7056
-74.0133	40.7058
-74.0149	40.7049
-74.0075	40.7053
-74.0169	40.7026
-74.0151	40.7015
-74.0167	40.7026
-74.0085	40.7031
-73.9128	40.784
-74.0149	40.7045
-74.0175	40.7051
-74.0176	40.7076
-74.014	40.7014
-74.0138	40.7013
-74.0144	40.7082
-74.0165	40.7036
-74.0186	40.7067
-74.0157	40.7029
-74.0158	40.7018
-74.0175	40.7037
-74.0109	40.7081
-74.0149	40.7035
-74.0152	40.7014
-74.0125	40.7013
-74.014	40.705
-74.0184	40.7054
-74.0108	40.7042
-74.0105	40.7042
-73.5731	40.81
-74.0134	40.7059
-74.0158	40.7019
-74.016	40.7022
-74.014	40.7091
-73.8744	40.8596
-74.0165	40.7025
-74.0106	40.7071
-74.0147	40.7043
-74.0153	40.7011
-74.018	40.7056
-74.0159	40.7019
-73.8597	40.7364
-74.0148	40.702
-74.0175	40.7032
-74.0171	40.7042
-74.0172	40.7037
-74.0166	40.7031
-74.0154	40.7077
-74.019	40.705
-74.0072	40.7036
-74.0151	40.709
-74.0078	40.7029
-74.0171	40.7037
-74.0165	40.7023
-74.0168	40.7033
-74.0147	40.7037
-74.0147	40.7017
-74.0131	40.7092
-74.0161	40.7023
-74.0175	40.7038
-74.0169	40.7028
-74.0154	40.7075
-74.0161	40.7043
-74.0149	40.7045
-74.0153	40.7071
-74.0154	40.7048
-74.0144	40.7022
-74.0126	40.7014
-74.0085	40.7075
-74.0151	40.7013
-74.0164	40.7026
-74.014	40.7025
-74.0134	40.7018
-74.0158	40.7018
-74.0166	40.7038
-73.7576	40.6644
-74.0176	40.7034
-74.0179	40.7052
-74.0165	40.7072
-74.0158	40.7025
-74.0145	40.7013
-74.0157	40.7017
-74.0187	40.7071
-74.0128	40.7023
-74.0164	40.7067
-74.0164	40.7034
-74.0144	40.7046
-74.0153	40.7017
-74.0075	40.7061
-74.0135	40.7054
-74.0172	40.7038
-74.013	40.7022
-74.0169	40.7041
-74.0174	40.7042
-74.0107	40.7017
-74.0155	40.7021
-74.015	40.7053
-74.0144	40.7015
-74.0161	40.7025
-74.0154	40.7012
-74.0161	40.7026
-73.9248	40.7883
-74.0169	40.7034
-74.0145	40.7044
-74.015	40.7068
-74.0184	40.7044
-74.0177	40.7041
-74.0159	40.7048
-74.0176	40.7085
-74.0163	40.703
-74.0156	40.7013
-74.017	40.7029
-74.0182	40.7051
-74.0141	40.7024
-74.0142	40.7067
-74.0157	40.7015
-74.0119	40.7014
-74.0161	40.7036
-74.0151	40.7009
-74.0151	40.7019
-74.017	40.7074
-73.7872	40.783
-74.0147	40.7014
-74.0071	40.7038
-74.0144	40.7045
-74.0179	40.7045
-74.0151	40.7021
-74.0191	40.7058
-74.0135	40.7069
-74.0142	40.7027
-74.0144	40.7063
-74.0154	40.7015
-74.0166	40.7025
-74.0165	40.7049
-74.0175	40.7031
-74.017	40.7041
-74.0171	40.7041
-74.0155	40.7076
-74.0153	40.7018
-74.015	40.7017
-74.017	40.703
-74.015	40.7062
-74.0176	40.7035
-74.0149	40.7016
-74.0166	40.7036
-74.0162	40.7023
-74.0072	40.7075
-73.9296	40.8737
-74.017	40.7046
-73.3631	40.6872
-74.0166	40.7025
-74.0164	40.7045
-73.6053	40.629
-74.0145	40.7041
-74.0082	40.7078
-74.0149	40.7017
-74.0156	40.7015
-74.0164	40.7027
-74.0167	40.7027
-74.0185	40.7053
-74.0141	40.7013
-74.0106	40.7091
-74.0158	40.7016
-74.0149	40.7039
-74.0068	40.7037
-74.0111	40.7031
-74.0169	40.7033
-74.0069	40.7038
-74.0154	40.7036
-74.0068	40.7067
-74.0096	40.7019
-74.019	40.7059
-74.0164	40.7042
-74.0171	40.7042
-74.0143	40.7023
-74.0086	40.7033
-74.0146	40.7018
-74.0148	40.704
-74.0178	40.7053
-74.0129	40.7023
-74.0169	40.7033
-74.0154	40.7081
-74.0114	40.7015
-74.0151	40.7064
-74.0114	40.705
-74.0155	40.7018
-74.0163	40.7023
-74.0167	40.703
-74.0147	40.7069
-74.0166	40.7049
-74.0117	40.7078
-74.0118	40.7029
-74.0127	40.7017
-74.0168	40.7051
-74.0154	40.7017
-74.0113	40.7043
-74.0095	40.7085
-74.016	40.702
-74.0156	40.7079
-74.0162	40.7023
-74.0147	40.7018
-74.0148	40.7016
-74.0136	40.7051
-74.0157	40.702
-74.0164	40.7022
-74.0152	40.7022
-74.0142	40.7068
-74.0158	40.7073
-74.0168	40.7048
-74.0146	40.7041
-74.0166	40.7038
-74.0163	40.7029
-74.017	40.7028
-74.0153	40.7014
-74.0161	40.7027
-74.016	40.7026
-74.0153	40.7046
-74.0144	40.7023
-74.0143	40.7063
-74.0166	40.7037
-74.0173	40.7037
-74.0165	40.7029
-74.0163	40.7044
-74.015	40.7048
-73.4261	40.9035
-74.0166	40.7027
-73.2581	40.744
-74.0153	40.7073
-74.0172	40.7075
-74.0137	40.7022
-74.017	40.7034
-74.0141	40.7013
-74.0173	40.7037
-73.4635	40.8408
-73.9596	40.7899
-74.008	40.708
-74.0166	40.7043
-74.0141	40.7047
-73.916	40.6968
-74.0069	40.7049
-74.0171	40.7057
-74.0152	40.707
-74.0156	40.7018
-74.0104	40.7032
-74.0161	40.7021
-74.0165	40.7025
-74.0129	40.7026
-74.0163	40.702
-74.0179	40.7053
-74.017	40.7034
-74.0147	40.7021
-74.0137	40.7067
-74.0133	40.7059
-74.0168	40.703
-74.0163	40.7033
-74.0143	40.7063
-74.0075	40.7032
-74.0167	40.704
-74.0094	40.702
-74.0173	40.7041
-74.017	40.7032
-74.0129	40.7022
-74.0148	40.7034
-74.016	40.7024
-74.0162	40.7024
-74.0153	40.7013
-74.017	40.7058
-74.0168	40.7029
-74.0163	40.704
-74.0146	40.7045
-74.0147	40.7066
-74.0147	40.7019
-74.0187	40.7044
-74.0149	40.7012
-74.0163	40.7029
-74.0136	40.7015
-74.0182	40.7052
-74.0141	40.7072
-74.0156	40.7017
-74.0171	40.7033
-74.0169	40.7024
-74.015	40.7019
-74.0133	40.7058
-74.0162	40.7031
-74.0062	40.7053
-73.9724	40.7421
-74.0143	40.7012
-74.0159	40.7017
-74.0087	40.7074
-74.0166	40.7051
-74.0161	40.7042
-73.9383	40.5757
-74.0143	40.7044
-74.0174	40.7039
-74.0127	40.7016
-74.0174	40.7039
-74.0172	40.7043
-74.0168	40.7032
-74.0152	40.702
-74.016	40.7092
-74.0164	40.7065
-74.0161	40.7018
-74.0153	40.7019
-74.0148	40.7016
-74.0142	40.7014
-74.0169	40.7036
-74.0161	40.7024
-74.0151	40.7011
-74.0164	40.7026
-74.0129	40.7077
-74.0176	40.7048
-74.0161	40.7041
-74.0156	40.7078
-74.0174	40.7049
-74.0153	40.7047
-74.0164	40.703
-74.0096	40.7023
-74.0163	40.7062
-74.0161	40.7018
-74.0177	40.7066
-74.0168	40.7028
-74.0184	40.7053
-74.0142	40.7015
-74.0162	40.702
-74.0156	40.7014
-74.0167	40.7025
-74.0169	40.7024
-74.0169	40.7035
-74.0147	40.702
-74.0171	40.7038
-74.0132	40.7058
-74.0096	40.7019
-74.0141	40.7012
-73.5048	40.6591
-74.017	40.7044
-74.0178	40.7043
-74.0165	40.705
-74.0151	40.7022
-74.0141	40.7017
-74.0143	40.7025
-74.016	40.7064
-73.8381	41.02
-74.016	40.7061
-74.0154	40.7021
-74.0157	40.7017
-74.0152	40.7055
-74.0166	40.7025
-74.0173	40.7036
-74.0168	40.7039
-74.0182	40.7044
-73.5664	40.6512
-74.013	40.7023
-74.0064	40.7055
-74.0157	40.7019
-74.0149	40.7072
-74.0154	40.7015
-74.0149	40.7064
-74.0177	40.704
-74.0144	40.7015
-74.016	40.7023
-74.0156	40.7089
-74.014	40.7046
-74.017	40.7031
-74.0141	40.7071
-74.0148	40.7018
-74.0145	40.7041
-74.0136	40.7067
-74.0156	40.7017
-74.0166	40.7028
-74.0163	40.7028
-74.0141	40.702
-74.0109	40.7088
-74.0168	40.7026
-74.0114	40.7035
-74.0162	40.7037
-74.0162	40.7034
-73.6141	40.6675
-74.0162	40.7031
-74.01	40.7022
-74.015	40.7012
-73.85	40.9785
-74.0163	40.7079
-74.0163	40.7029
-74.0092	40.7021
-74.0164	40.7045
-73.9917	40.7241
-74.0172	40.7042
-74.0151	40.7016
-74.0096	40.702
-74.0144	40.7023
-74.0086	40.703
-74.0157	40.7044
-74.018	40.7053
-74.0172	40.7049
-73.2421	40.8558
-74.0169	40.7033
-74.0152	40.7085
-74.0185	40.7067
-74.0155	40.7035
-74.0153	40.7017
-74.0144	40.7027
-74.0164	40.7031
-74.0144	40.7028
-74.0142	40.7013
-74.0101	40.7045
-74.0159	40.7044
-74.0086	40.7042
-74.0155	40.7021
-74.0156	40.7019
-74.0107	40.7045
-73.4493	40.7706
-74.016	40.702
-74.0161	40.7025
-73.8011	40.7447
-74.0146	40.7016
-74.0158	40.7019
-74.0148	40.7021
-74.0151	40.7047
-74.0174	40.7034
-74.0185	40.7043
-74.0078	40.7032
-74.0159	40.7046
-74.0124	40.7013
-74.0171	40.7033
-74.0144	40.7045
-74.0165	40.7038
-74.0166	40.7024
-74.0147	40.7043
-74.0166	40.7037
-74.0164	40.7025
-74.007	40.7076
-74.0175	40.7039
-74.0168	40.7029
-73.7965	40.7521
-74.0163	40.704
-74.0175	40.7032
-74.0143	40.7063
-74.0142	40.7022
-74.0124	40.7014
-74.0167	40.7027
-74.0183	40.7087
-74.0157	40.7045
-74.0167	40.705
-74.009	40.7053
-74.0141	40.7013
-74.0163	40.7036
-74.0154	40.701
-74.0164	40.7022
-74.0172	40.7042
-74.01	40.7053
-74.0156	40.702
-74.0152	40.7089
-74.01	40.702
-74.0097	40.702
-74.0139	40.7052
-74.0171	40.7048
-74.0158	40.7018
-74.0162	40.7021
-74.0162	40.7025
-74.0102	40.7076
-74.0127	40.7025
-74.0167	40.7025
-74.0164	40.7034
-74.0175	40.7067
-74.0148	40.7019
-74.0098	40.7021
-74.0154	40.7066
-74.0132	40.705
-74.0163	40.7035
-74.0145	40.7046
-74.017	40.7041
-74.0152	40.7018
-74.0169	40.7032
-74.0182	40.7045
-74.0147	40.7075
-74.0143	40.7025
-74.01	40.7019
-74.0176	40.7035
-74.0155	40.702
-74.0168	40.7037
-74.016	40.7025
-74.0153	40.7013
-74.0164	40.7026
-73.4215	40.8045
-74.0169	40.7035
-74.0168	40.7041
-74.0146	40.7042
-74.0157	40.7072
-74.0175	40.7038
-74.0079	40.7029
-74.0163	40.7028
-74.0102	40.7021
-74.0175	40.704
-74.0152	40.7046
-74.0139	40.7023
-74.0116	40.7035
-74.0136	40.7069
-74.0137	40.7012
-74.0175	40.7037
-74.0169	40.7032
-73.2785	40.8393
-74.0161	40.7017
-74.1076	40.5607
-74.0151	40.7021
-74.0159	40.7035
-74.0182	40.7087
-74.0137	40.708
-74.0154	40.7017
-74.0169	40.7024
-74.008	40.7055
-74.0157	40.7016
-74.0183	40.7044
-74.0168	40.7064
-74.0146	40.704
-74.0191	40.7063
-74.0126	40.7015
-74.0145	40.7033
-74.0152	40.7011
-73.6815	40.9937
-73.8921	40.6942
-74.0164	40.7049
-74.0169	40.7041
-74.0172	40.7042
-74.0155	40.7014
-74.0148	40.7071
-74.0154	40.7019
-74.0149	40.7017
-74.0164	40.7031
-74.0097	40.7048
-74.0152	40.702
-73.2839	40.8269
-74.0144	40.7015
-74.0169	40.7036
-73.8653	40.8188
-74.0163	40.7022
-74.0165	40.7025
-74.017	40.7075
-74.0165	40.704
-74.015	40.7044
-74.0175	40.7044
-74.0151	40.7052
-74.0149	40.7018
-74.0078	40.7031
-74.0165	40.7026
-74.0181	40.705
-74.0143	40.7013
-74.0159	40.7017
-74.0175	40.7043
-74.0163	40.7043
-74.0169	40.703
-74.0145	40.7022
-74.0173	40.7085
-74.0133	40.7057
-74.0151	40.7016
-74.0159	40.7046
-74.0169	40.7045
-74.017	40.7045
-74.0148	40.7018
-74.0154	40.7093
-74.018	40.7043
-74.0089	40.7027
-74.0149	40.7021
-74.0143	40.7022
-74.0146	40.7031
-74.0186	40.7056
-74.0156	40.7048
-74.0155	40.7078
-74.0123	40.7013
-74.0152	40.7018
-74.0164	40.7023
-74.0171	40.7031
-74.0157	40.7022
-74.0129	40.7022
-74.0166	40.705
-74.0155	40.702
-74.0134	40.7046
-74.0154	40.7016
-74.015	40.7061
-74.0154	40.7036
-74.0163	40.7045
-74.0143	40.7013
-74.0148	40.7016
-74.0155	40.702
-74.0165	40.702
-74.0139	40.707
-74.0148	40.7017
-74.014	40.7064
-74.0074	40.7073
-74.0172	40.7034
-74.0161	40.7078
-74.0165	40.7029
-74.0139	40.7021
-74.017	40.7028
-74.0175	40.7042
-73.5682	40.6372
-74.0153	40.7045
-74.015	40.7023
-74.0101	40.7033
-74.017	40.7031
-74.0138	40.705
-74.0168	40.7037
-74.0176	40.7039
-74.0174	40.7038
-74.0166	40.703
-74.0156	40.7049
-74.0157	40.7086
-74.0148	40.7047
-74.0069	40.7038
-74.0168	40.7026
-74.0149	40.7015
-74.0167	40.7026
-74.0091	40.7032
-74.0148	40.7044
-74.0177	40.7052
-74.0181	40.7063
-74.0132	40.7019
-74.0167	40.7033
-74.0171	40.7033
-74.0156	40.7044
-74.0156	40.7021
-74.0158	40.7071
-74.0158	40.7019
-74.0175	40.704
-74.0097	40.708
-74.0148	40.7039
-74.0147	40.7017
-74.0154	40.7018
-74.0184	40.7054
-74.0185	40.7068
-74.0156	40.7075
-74.0142	40.7067
-74.0155	40.7018
-74.0096	40.708
-74.016	40.7022
-74.0164	40.7024
-74.0146	40.7042
-74.0147	40.7018
-74.0153	40.7011
-74.0159	40.7019
-74.0107	40.7087
-74.1329	40.5932
-74.0149	40.702
-74.0175	40.7042
-74.0171	40.7038
-74.0167	40.7031
-74.0155	40.7073
-74.014	40.7065
-74.016	40.7024
-74.0153	40.7089
-74.017	40.7038
-74.0165	40.7023
-74.0168	40.7033
-74.0148	40.7037
-74.0166	40.7037
-74.0162	40.7023
-74.0175	40.7037
-74.017	40.7029
-74.0155	40.7077
-74.0161	40.7043
-74.0149	40.7045
-74.0148	40.7048
-74.0113	40.7015
-74.0151	40.7013
-74.0164	40.7026
-74.0138	40.7027
-74.0134	40.7018
-74.0152	40.7037
-74.0176	40.7036
-74.0179	40.7052
-74.0158	40.7025
-74.0135	40.705
-73.8499	40.745
-74.0138	40.7012
-74.016	40.7091
-74.0163	40.7063
-74.008	40.7046
-74.0166	40.7049
-74.0157	40.7017
-74.0144	40.7066
-73.2481	40.8898
-74.0134	40.7053
-74.0172	40.7038
-74.0165	40.7064
-73.7323	40.725
-74.017	40.704
-74.0173	40.7042
-74.0166	40.7032
-74.0123	40.7014
-74.0155	40.7021
-74.0145	40.7015
-74.0168	40.7036
-74.0161	40.7025
-74.0153	40.7012
-74.0162	40.7026
-74.0135	40.7079
-74.0169	40.7034
-73.8827	40.9162
-74.0145	40.7044
-74.0149	40.7067
-74.016	40.7048
-74.0122	40.7014
-73.9128	40.7571
-74.0157	40.7091
-74.0163	40.703
-74.0078	40.7033
-74.0168	40.7025
-74.0162	40.7046
-74.017	40.7029
-74.0182	40.7051
-74.014	40.7023
-74.0146	40.7066
-74.0138	40.7011
-74.0157	40.7015
-74.0152	40.7015
-74.0147	40.704
-74.015	40.701
-74.0182	40.7087
-74.0172	40.7048
-74.0169	40.7035
-74.0152	40.7021
-74.0177	40.7069
-74.015	40.7015
-74.0191	40.7063
-74.0122	40.7013
-74.0138	40.7046
-74.0178	40.7045
-74.0151	40.7021
-74.0161	40.7044
-74.0143	40.7028
-74.0151	40.7063
-74.0154	40.7015
-74.0157	40.705
-74.0169	40.7041
-74.0151	40.7074
-74.0152	40.7018
-74.0169	40.703
-74.0154	40.7072
-74.0175	40.7033
-74.0149	40.7016
-74.0161	40.7023
-74.0154	40.7046
-74.0148	40.7045
-74.0155	40.7073
-74.0164	40.7045
-74.0145	40.7041
-74.015	40.7016
-74.0155	40.7015
-74.0164	40.7027
-74.0168	40.7027
-74.0183	40.7052
-74.0141	40.7013
-74.0159	40.7016
-74.0148	40.7041
-74.0168	40.7034
-74.0148	40.7039
-74.0167	40.703
-74.0172	40.7085
-74.0093	40.702
-74.015	40.7054
-74.0164	40.7042
-74.0089	40.7042
-74.017	40.7042
-74.0143	40.7024
-74.0167	40.705
-74.0088	40.7031
-74.0146	40.7018
-74.0155	40.7036
-73.6751	41.0373
-74.0138	40.7023
-74.016	40.7064
-74.0124	40.7014
-74.0151	40.7065
-74.0156	40.7018
-74.0163	40.7023
-74.0139	40.7023
-74.0167	40.703
-73.6752	41.0486
-74.0148	40.7071
-74.0152	40.7016
-74.0112	40.7083
-74.0161	40.7018
-74.0128	40.7017
-74.0154	40.7016
-74.0159	40.7021
-74.0156	40.7077
-74.0161	40.7024
-74.0147	40.7018
-74.0148	40.7016
-74.0176	40.7068
-74.0156	40.7019
-74.0153	40.7022
-74.0137	40.7069
-74.0155	40.7048
-74.0098	40.7019
-74.0082	40.7077
-74.0168	40.7038
-74.0061	40.7042
-74.0126	40.7047
-74.0163	40.703
-74.017	40.7028
-74.0144	40.7067
-74.0162	40.703
-74.0162	40.7046
-74.0147	40.7021
-74.0166	40.7037
-74.0164	40.7067
-74.0086	40.705
-74.0173	40.7037
-74.0166	40.7029
-74.0125	40.7015
-74.0162	40.7044
-74.0144	40.7063
-74.0142	40.7015
-74.0165	40.7026
-74.0146	40.7045
-74.015	40.7072
-74.0165	40.705
-74.0176	40.7069
-74.0088	40.706
-74.0169	40.7038
-74.0191	40.7066
-73.4024	40.807
-74.0173	40.7036
-74.0155	40.7021
-74.0153	40.7091
-74.0094	40.7021
-74.0151	40.7068
-74.0157	40.7018
-74.0099	40.7021
-74.0161	40.7021
-74.0165	40.7025
-74.0112	40.7082
-74.0162	40.7019
-74.016	40.7019
-74.0069	40.7057
-73.8288	40.7316
-74.0147	40.7021
-74.0132	40.7057
-74.0149	40.701
-74.0166	40.7031
-74.0169	40.7058
-74.0077	40.7033
-74.0166	40.704
-74.0096	40.7019
-74.0172	40.7041
-74.0171	40.7031
-74.0147	40.7033
-74.007	40.7036
-74.015	40.701
-74.016	40.7024
-74.0136	40.708
-74.0161	40.7024
-74.0153	40.7013
-74.0186	40.7065
-74.0168	40.7028
-74.0163	40.7042
-74.0146	40.7045
-74.0147	40.7065
-74.009	40.7024
-74.015	40.7012
-74.0162	40.7028
-74.0138	40.7015
-74.0184	40.705
-74.0139	40.7071
-74.0141	40.7012
-74.0166	40.7032
-74.0169	40.7025
-74.0178	40.7051
-74.015	40.7018
-74.0133	40.7051
-74.0162	40.703
-74.0061	40.7062
-74.0136	40.7012
-74.0141	40.7048
-74.0157	40.7016
-74.017	40.7048
-74.0098	40.7081
-74.0162	40.704
-74.0143	40.7044
-74.0162	40.7049
-74.0147	40.7016
-73.6816	40.9935
-74.0174	40.7039
-74.0135	40.7016
-74.0173	40.704
-74.0171	40.7042
-74.017	40.7041
-74.0155	40.7022
-74.016	40.7092
-74.015	40.7018
-74.0163	40.7065
-74.0154	40.7012
-74.0154	40.7019
-74.0149	40.7016
-74.0142	40.7013
-74.0161	40.7024
-73.2445	40.7139
-74.015	40.7012
-74.0162	40.7025
-73.2395	40.8553
-74.016	40.7042
-74.0156	40.7076
-74.0177	40.7044
-74.0154	40.7047
-74.012	40.7016
-74.0085	40.7073
-73.4953	40.6866
-74.0164	40.703
-74.0078	40.703
-74.0161	40.7018
-73.5875	40.8494
-74.0168	40.7028
-74.0183	40.7052
-74.0142	40.7015
-74.0116	40.7042
-74.0156	40.7014
-74.0165	40.7021
-74.0147	40.702
-74.0089	40.7049
-74.0078	40.7091
-74.0091	40.702
-73.9586	40.7362
-73.5878	40.8803
-74.0167	40.7044
-74.0191	40.7061
-74.0073	40.7052
-74.0171	40.7043
-74.0179	40.7043
-74.0165	40.7051
-74.0151	40.7022
-74.0154	40.7071
-74.0179	40.7057
-74.017	40.7033
-74.0143	40.7062
-74.0157	40.7017
-74.0165	40.7025
-74.0143	40.7025
-74.0166	40.7039
-74.0182	40.7044
-74.0152	40.7074
-74.0153	40.7016
-74.0156	40.7078
-74.0176	40.704
-74.017	40.7036
-74.016	40.7024
-74.016	40.7017
-74.0172	40.7034
-74.0139	40.7072
-74.0168	40.7046
-73.9305	40.8001
-74.011	40.7066
-74.0137	40.7066
-74.0074	40.7073
-74.0156	40.7016
-74.009	40.7041
-74.0166	40.7028
-74.0163	40.7028
-74.0141	40.702
-74.0109	40.7088
-74.0169	40.7027
-74.0108	40.7037
-73.1849	40.7557
-74.0161	40.7037
-74.0168	40.7033
-74.0162	40.7029
-74.0103	40.7031
-74.0149	40.7013
-74.0081	40.7027
-74.0163	40.703
-73.3899	40.8064
-74.0164	40.7044
-74.007	40.7037
-74.0171	40.7042
-74.015	40.7016
-74.0169	40.7028
-74.0092	40.7033
-74.0159	40.7043
-74.0181	40.7053
-74.0171	40.7058
-74.0064	40.7042
-73.6886	40.7668
-74.0165	40.7033
-73.4425	40.9253
-74.0144	40.7031
-74.0154	40.7016
-74.013	40.7032
-74.0144	40.7026
-74.0164	40.7031
-74.0145	40.7038
-74.0138	40.7012
-74.0097	40.7074
-74.0124	40.7014
-74.0063	40.7043
-74.0165	40.7026
-74.0762	40.6385
-74.0155	40.7018
-74.0098	40.7082
-74.016	40.7019
-74.015	40.7059
-74.016	40.7025
-74.0146	40.7016
-74.017	40.7035
-74.0157	40.7019
-74.0152	40.7064
-74.0149	40.7022
-74.0158	40.7048
-74.0175	40.7069
-73.6629	40.6287
-74.0185	40.7044
-74.016	40.7045
-74.0119	40.7066
-74.0081	40.708
-74.0169	40.7031
-74.0138	40.7066
-73.7859	40.9598
-74.0165	40.7038
-74.0166	40.7024
-74.0148	40.7044
-74.0165	40.7025
-74.0069	40.7077
-74.0173	40.7038
-74.0167	40.7029
-74.0163	40.704
-74.0176	40.7033
-74.0156	40.7047
-74.0153	40.7048
-74.0141	40.7019
-74.0126	40.7015
-74.0152	40.7013
-74.0167	40.7027
-74.0156	40.7045
-74.0152	40.7073
-74.0136	40.7024
-74.0167	40.7032
-74.0154	40.7024
-74.008	40.7079
-74.0172	40.7042
-74.0125	40.7032
-74.0165	40.7041
-74.0099	40.7021
-74.0103	40.7019
-74.0171	40.7048
-74.0159	40.7018
-74.0163	40.7021
-74.0162	40.7026
-74.0097	40.708
-74.0165	40.7022
-74.0176	40.7051
-73.36	40.7674
-74.0149	40.702
-74.0128	40.7018
-74.0105	40.702
-74.0147	40.7072
-74.0133	40.7053
-74.014	40.7011
-73.6072	40.8442
-74.0163	40.7035
-74.0146	40.7046
-74.017	40.7041
-74.0174	40.7041
-74.0166	40.7032
-74.0178	40.7043
-74.0153	40.7021
-74.0145	40.7026
-74.0097	40.7021
-74.0156	40.7019
-74.016	40.7024
-74.0154	40.7013
-74.0163	40.7027
-74.017	40.7035
-74.0167	40.7041
-74.0146	40.7042
-74.0154	40.7072
-74.0175	40.7038
-74.0079	40.7029
-74.0168	40.709
-74.0163	40.7028
-74.009	40.7026
-74.0137	40.7015
-74.0151	40.7046
-74.0139	40.7024
-74.0146	40.7068
-74.0175	40.7037
-74.0161	40.7017
-74.0175	40.7049
-74.0149	40.7019
-74.0161	40.7034
-74.0135	40.705
-74.0182	40.7087
-74.0143	40.7082
-74.0156	40.7022
-74.0158	40.7047
-74.0156	40.7015
-74.0155	40.7047
-74.0183	40.7044
-74.0146	40.7037
-74.0191	40.7064
-74.0126	40.7015
-74.0145	40.7035
-74.0177	40.7064
-74.0152	40.7011
-73.3313	40.6872
-74.0169	40.7049
-74.017	40.7041
-74.0174	40.704
-74.0154	40.7019
-74.0163	40.706
-74.0164	40.7031
-74.0152	40.702
-73.7707	40.7256
-74.0171	40.7036
-74.0163	40.7023
-74.0182	40.7046
-74.0164	40.7025
-74.0171	40.7075
-74.0165	40.704
-74.0149	40.7044
-74.0151	40.7047
-74.0149	40.7018
-74.0079	40.7033
-74.0165	40.7026
-74.0181	40.705
-74.0144	40.7013
-74.0116	40.705
-74.0088	40.706
-74.0159	40.7017
-74.0066	40.7037
-74.0176	40.704
-74.0169	40.7035
-74.0148	40.7021
-74.0136	40.7049
-74.0182	40.7086
-74.0133	40.7057
-74.0166	40.7044
-74.0164	40.7046
-74.017	40.7042
-74.0069	40.7048
-74.017	40.7045
-74.0147	40.7018
-74.018	40.7043
-74.0177	40.7053
-74.0149	40.7021
-74.0142	40.7022
-74.0147	40.7032
-74.0187	40.7056
-74.0166	40.7033
-74.0127	40.7082
-74.0169	40.7049
-74.0124	40.7014
-74.0157	40.7032
-73.7737	40.6723
-74.0151	40.7018
-74.0164	40.7023
-74.0171	40.7031
-74.008	40.7054
-74.0174	40.7038
-74.0171	40.704
-74.0132	40.7036
-74.0155	40.7016
-74.015	40.7067
-74.0164	40.7046
-74.0162	40.7045
-74.0142	40.7013
-74.0148	40.7016
-74.0157	40.7023
-74.0157	40.7013
-74.0148	40.7017
-74.0141	40.7062
-74.0068	40.7068
-74.0172	40.7036
-73.84	40.9058
-74.0166	40.7029
-74.0139	40.7021
-74.017	40.7028
-74.0168	40.7041
-74.0155	40.7044
-74.0076	40.7032
-74.0152	40.7022
-73.8633	40.9186
-74.0176	40.704
-74.0174	40.7038
-74.0165	40.703
-74.0161	40.7066
-74.0164	40.7046
-74.0167	40.708
-74.0145	40.7046
-74.0062	40.7041
-74.0171	40.7029
-74.0151	40.7016
-74.0167	40.7026
-74.0147	40.7045
-74.0165	40.7081
-74.0135	40.7021
-74.0168	40.7033
-74.0143	40.7028
-74.0154	40.7045
-74.0187	40.7067
-74.0156	40.704
-74.0157	40.7019
-74.0096	40.708
-74.0146	40.7031
-74.0151	40.7021
-74.0136	40.7012
-74.0184	40.7054
-74.0075	40.7051
-74.0155	40.7017
-74.0106	40.7036
-74.01	40.7051
-74.0097	40.708
-74.0159	40.7023
-74.0067	40.7075
-74.0164	40.7024
-74.0147	40.7043
-74.0148	40.7017
-74.0153	40.7011
-74.0089	40.705
-74.017	40.7035
-74.016	40.7019
-74.0149	40.7021
-74.0078	40.7032
-74.0175	40.7032
-74.0172	40.7042
-74.0168	40.7039
-74.0164	40.7031
-74.0168	40.7049
-74.0193	40.7061
-74.0162	40.7023
-73.915	40.8704
-74.0076	40.7031
-74.0169	40.7038
-74.0165	40.7022
-74.0167	40.7033
-74.0141	40.7022
-74.0148	40.7038
-74.0147	40.7017
-73.3702	40.8862
-74.0161	40.7023
-74.0174	40.7037
-74.0169	40.7029
-74.016	40.7043
-74.0162	40.7046
-74.0152	40.7048
-74.0143	40.7022
-74.0123	40.7012
-74.0151	40.7013
-74.0164	40.7027
-74.0137	40.7028
-74.0152	40.7045
-74.0187	40.7047
-74.0158	40.7018
-74.0168	40.7032
-74.0176	40.7036
-74.0179	40.7053
-74.0153	40.7045
-74.0157	40.7024
-74.0146	40.7013
-74.0121	40.7013
-74.015	40.7049
-74.0157	40.7017
-74.0073	40.7071
-74.0161	40.7026
-73.7763	40.7953
-74.017	40.7034
-74.0158	40.7066
-74.0149	40.7017
-74.0068	40.7056
-74.0174	40.7049
-74.0134	40.7053
-74.017	40.7039
-74.0131	40.7021
-74.0166	40.7064
-74.0171	40.704
-74.0174	40.7042
-74.0151	40.7019
-73.973	40.7753
-74.0155	40.7022
-74.0166	40.7036
-74.016	40.7025
-74.0154	40.7012
-74.0161	40.7026
-74.0168	40.7034
-73.6113	40.8209
-74.0145	40.7044
-74.0149	40.7066
-74.0163	40.7047
-74.0163	40.7029
-74.0168	40.7025
-74.0163	40.7046
-74.017	40.703
-74.0182	40.7051
-74.014	40.7023
-74.0146	40.7064
-74.0175	40.7039
-74.0166	40.704
-74.0156	40.7013
-74.0152	40.7021
-74.0147	40.704
-74.0137	40.7068
-74.0147	40.7013
-74.0123	40.7014
-74.018	40.7045
-74.015	40.7021
-74.018	40.7059
-74.016	40.7044
-74.017	40.7034
-74.0144	40.7028
-74.0179	40.7063
-74.0154	40.7015
-74.0158	40.705
-74.017	40.704
-74.0153	40.7075
-74.0154	40.7018
-74.0151	40.7064
-74.0168	40.703
-74.015	40.7066
-74.0175	40.7031
-74.0149	40.7016
-74.0161	40.7023
-74.0171	40.7047
-74.0155	40.7013
-74.0166	40.7025
-74.0176	40.7036
-74.0165	40.7044
-74.0067	40.7067
-74.015	40.7017
-74.0155	40.7015
-74.0164	40.7028
-74.0168	40.7027
-74.0183	40.7051
-74.0141	40.7013
-74.0112	40.7063
-74.0158	40.7016
-74.0148	40.7041
-74.0169	40.7033
-74.0069	40.7036
-74.015	40.7038
-74.0164	40.7032
-73.979	40.7315
-74.0096	40.7019
-74.0107	40.7072
-74.0164	40.7041
-74.0171	40.7042
-74.0147	40.7017
-74.0143	40.7024
-74.0089	40.7027
-74.0069	40.7055
-74.0146	40.7018
-74.0152	40.7037
-74.0182	40.7053
-74.013	40.7023
-74.007	40.7038
-74.0165	40.7033
-74.0145	40.7033
-74.0162	40.7059
-74.0125	40.7014
-74.0157	40.7048
-74.0156	40.7018
-74.0146	40.7042
-74.1736	40.5458
-74.0168	40.703
-74.015	40.7015
-74.0189	40.707
-74.007	40.7048
-74.0163	40.7021
-74.0154	40.7015
-74.0158	40.702
-74.0152	40.7071
-73.9948	40.716
-74.0162	40.7024
-74.0143	40.7015
-74.0148	40.7016
-74.0157	40.702
-74.0137	40.7069
-74.0168	40.7039
-74.0083	40.7038
-74.0121	40.7091
-74.0164	40.703
-74.0139	40.7022
-74.0169	40.7028
-74.017	40.7041
-74.0146	40.7065
-74.0162	40.7032
-74.0163	40.7046
-74.0146	40.7021
-74.0169	40.7037
-74.0174	40.7037
-74.0164	40.7029
-74.0125	40.7015
-74.0162	40.7044
-74.0158	40.7046
-74.0166	40.708
-74.0142	40.7063
-74.0143	40.7016
-73.9387	40.7669
-74.0133	40.7052
-74.0165	40.7027
-74.0086	40.703
-74.0158	40.7073
-74.0174	40.705
-74.0129	40.7024
-74.0171	40.7036
-74.014	40.7013
-74.0154	40.7078
-74.0173	40.7036
-74.0166	40.7044
-74.0067	40.7036
-74.0107	40.7041
-74.0082	40.7048
-74.015	40.7058
-74.015	40.7066
-74.0156	40.7018
-74.0161	40.7022
-74.0164	40.7025
-74.0145	40.7044
-74.0161	40.7018
-74.0125	40.7014
-74.0165	40.7034
-74.0159	40.7018
-74.0147	40.7021
-74.0173	40.7029
-73.2686	40.6245
-74.0157	40.7044
-74.0134	40.7058
-74.0169	40.7031
-74.0172	40.7033
-74.0166	40.7065
-74.0077	40.703
-74.0166	40.704
-74.0097	40.702
-74.0174	40.704
-74.0144	40.7022
-74.0149	40.7035
-74.0095	40.7022
-74.016	40.7024
-74.0162	40.7023
-74.0174	40.7039
-74.0168	40.7029
-73.8394	40.971
-74.0163	40.7041
-74.0146	40.7045
-74.0147	40.7063
-74.0146	40.702
-74.015	40.7012
-74.0162	40.7028
-74.0138	40.7015
-74.0186	40.7052
-74.0115	40.703
-74.0142	40.7067
-74.0154	40.7016
-74.0172	40.7035
-74.0169	40.7025
-74.0167	40.7025
-74.0141	40.7047
-74.0162	40.7029
-74.0135	40.7013
-74.0106	40.7038
-74.017	40.7091
-74.0156	40.7048
-74.0158	40.7017
-74.0147	40.707
-74.0087	40.7074
-74.0143	40.7045
-74.0168	40.7065
-73.8237	40.717
-74.0174	40.7039
-74.0131	40.7016
-74.0172	40.7041
-74.0171	40.7043
-74.0167	40.7032
-74.0154	40.7022
-74.0159	40.7065
-74.0154	40.7012
-74.0155	40.7019
-74.0149	40.7016
-74.0142	40.7013
-74.0152	40.7048
-74.0162	40.7025
-74.0126	40.7032
-74.015	40.7012
-74.0163	40.7025
-74.0131	40.7078
-74.0168	40.7033
-73.9321	40.8231
-74.0159	40.7043
-74.0156	40.7074
-74.0154	40.7048
-74.0086	40.7073
-74.0164	40.703
-74.016	40.7017
-74.0168	40.7028
-74.0183	40.7052
-74.0142	40.7022
-74.0156	40.7014
-74.0149	40.7014
-74.0171	40.7041
-74.0165	40.702
-74.017	40.7035
-74.0148	40.702
-74.0122	40.7027
-74.0134	40.7013
-74.0178	40.7061
-74.0172	40.7043
-74.2412	40.524
-74.0175	40.7044
-74.0167	40.7049
-74.0151	40.7022
-74.0157	40.7071
-74.0178	40.7062
-74.0157	40.7017
-74.0166	40.7025
-74.0147	40.7033
-74.0176	40.7034
-74.0159	40.7079
-74.0166	40.7039
-74.0183	40.7044
-74.0155	40.7019
-74.0155	40.7077
-74.0153	40.7016
-74.0168	40.7026
-74.015	40.7069
-74.0176	40.704
-74.0065	40.7074
-74.0171	40.7036
-74.0159	40.7023
-73.5864	40.7014
-74.0173	40.7035
-74.0166	40.7072
-74.0168	40.7045
-73.5856	40.8853
-74.0082	40.7078
-74.0156	40.7016
-74.0187	40.7081
-74.0166	40.7028
-74.0163	40.7028
-74.014	40.7015
-74.0108	40.7089
-74.0169	40.7027
-74.0165	40.7051
-74.0161	40.7037
-74.0163	40.7036
-74.0069	40.7036
-74.0161	40.7034
-74.0105	40.7034
-74.0149	40.7013
-74.0093	40.702
-74.0928	41.0799
-74.0163	40.7029
-74.0142	40.7045
-74.0179	40.7057
-74.0165	40.7044
-74.0071	40.7048
-74.0172	40.7042
-73.9326	40.7332
-74.0151	40.7016
-73.276	40.8761
-74.0105	40.7092
-74.0143	40.7022
-74.0089	40.7028
-74.0141	40.7016
-74.0152	40.7045
-74.0168	40.7066
-74.0167	40.7033
-73.7423	40.7493
-74.0105	40.7017
-74.0154	40.7016
-74.0838	40.6275
-74.0164	40.7024
-74.0165	40.7031
-74.0146	40.7032
-74.0069	40.7048
-74.0166	40.7047
-74.0133	40.7059
-74.0125	40.7014
-74.0171	40.7041
-74.0155	40.7019
-74.016	40.7019
-74.0151	40.7059
-74.0161	40.7025
-74.0107	40.707
-74.0146	40.7017
-74.0157	40.7019
-74.0149	40.7022
-74.0166	40.7048
-74.0174	40.7034
-74.0145	40.7041
-74.016	40.7045
-74.0083	40.7078
-74.0165	40.7038
-74.0151	40.7085
-74.0165	40.7037
-74.0166	40.7024
-74.017	40.704
-74.0148	40.7044
-74.0169	40.7037
-74.0164	40.7024
-74.0173	40.7038
-74.0167	40.7029
-74.0164	40.7046
-74.0153	40.7046
-74.0139	40.7065
-74.0142	40.7021
-74.0123	40.7012
-74.0133	40.7046
-74.0167	40.7027
-73.7231	40.6876
-74.0176	40.7034
-74.0158	40.7045
-74.0156	40.7073
-74.0166	40.705
-74.0158	40.7036
-74.0184	40.7043
-74.0155	40.7015
-74.0165	40.7022
-74.0174	40.7039
-74.0095	40.7064
-74.0133	40.7012
-74.0098	40.7021
-74.0105	40.7018
-74.0152	40.7054
-74.0172	40.7048
-74.0159	40.7018
-74.0175	40.7085
-74.0162	40.7021
-74.0162	40.7026
-74.0164	40.7021
-74.0162	40.707
-74.0143	40.7068
-74.0149	40.702
-74.0119	40.7016
-74.0163	40.7021
-74.0154	40.7066
-74.0133	40.7054
-74.0162	40.7034
-74.0147	40.7046
-74.017	40.7041
-74.0175	40.7041
-74.0175	40.7043
-74.0146	40.7027
-74.014	40.7091
-74.0092	40.7023
-74.0176	40.7033
-73.899	40.9365
-74.0156	40.7019
-74.0146	40.7016
-74.0168	40.7037
-74.0151	40.7011
-74.016	40.7025
-73.7987	40.7137
-74.0155	40.7013
-74.0168	40.7029
-74.0169	40.7036
-74.017	40.7043
-74.0147	40.7043
-74.0153	40.7072
-74.0175	40.7045
-74.0175	40.7039
-74.0107	40.7041
-74.018	40.7078
-74.0163	40.7029
-74.0137	40.7015
-74.0139	40.7024
-74.0146	40.7066
-74.0159	40.7036
-74.0165	40.702
-74.0149	40.702
-74.0132	40.7059
-73.6735	40.9942
-74.0161	40.7034
-74.0183	40.7088
-74.0144	40.7082
-74.0166	40.7049
-74.0142	40.7047
-74.0157	40.7016
-74.0093	40.7073
-74.0146	40.7037
-74.0131	40.7012
-74.0171	40.7034
-74.0144	40.704
-74.0151	40.7064
-74.0151	40.7011
-74.0123	40.7068
-73.7165	40.7584
-74.014	40.7013
-74.0147	40.7074
-74.0163	40.7048
-74.017	40.7042
-74.0144	40.703
-74.0173	40.7041
-74.016	40.7018
-74.0151	40.7019
-74.0161	40.7088
-74.015	40.7017
-74.0164	40.7031
-74.0151	40.7019
-74.0142	40.7014
-74.0138	40.7049
-74.0144	40.7028
-74.0163	40.7022
-74.0144	40.7032
-74.0164	40.7025
-74.0146	40.7075
-74.0166	40.704
-74.0148	40.7043
-74.0184	40.7043
-74.0152	40.7047
-74.0145	40.7061
-74.0149	40.7017
-74.0171	40.709
-74.0102	40.702
-74.0162	40.7066
-74.0168	40.7029
-74.0181	40.705
-74.0145	40.7013
-74.0159	40.7017
-74.0176	40.7036
-74.0164	40.7046
-74.0149	40.7021
-74.0186	40.7088
-74.0134	40.7058
-74.0143	40.7013
-74.0163	40.7046
-74.0081	40.7047
-74.0172	40.7042
-74.0091	40.7041
-74.017	40.7046
-74.0181	40.7043
-74.0181	40.7088
-74.0149	40.7021
-74.0142	40.7021
-74.0145	40.7028
-74.016	40.7065
-74.0161	40.7062
-74.018	40.7061
-74.0153	40.7047
-74.0181	40.7055
-74.0152	40.7016
-74.0164	40.7023
-74.0172	40.703
-74.0174	40.7038
-74.0177	40.7045
-74.0162	40.7028
-74.0106	40.7051
-74.0153	40.7016
-74.0151	40.706
-74.0163	40.7042
-74.0161	40.7045
-74.0144	40.7014
-74.0148	40.7016
-74.0138	40.705
-74.0156	40.7022
-74.0161	40.7018
-74.0157	40.7013
-74.0136	40.707
-74.0148	40.7018
-74.0094	40.702
-74.0138	40.7065
-74.0074	40.7072
-74.0172	40.7033
-74.0176	40.704
-74.0167	40.7029
-74.014	40.7021
-74.0168	40.7026
-74.0154	40.7018
-74.0158	40.7043
-74.0152	40.7022
-74.0173	40.7033
-74.0152	40.7011
-74.008	40.7054
-74.0175	40.7042
-74.0174	40.7038
-74.0167	40.7029
-74.0192	40.7065
-74.0189	40.7057
-74.0162	40.7064
-74.017	40.7028
-74.0149	40.7016
-74.0167	40.7026
-74.0083	40.7032
-74.0148	40.7045
-74.0178	40.7052
-74.0156	40.7047
-74.0167	40.7065
-74.0153	40.7045
-74.0157	40.7019
-74.0146	40.703
-73.6973	40.6513
-74.0151	40.7022
-74.0145	40.7014
-74.0183	40.7053
-74.0066	40.7036
-74.0158	40.7076
-74.0155	40.7018
-74.0102	40.7033
-74.0103	40.7048
-74.0097	40.708
-74.0163	40.7021
-74.0163	40.7024
-74.0145	40.7043
-74.0148	40.7018
-74.0152	40.7011
-74.018	40.7058
-74.0148	40.7021
-74.0165	40.7049
-74.0172	40.7042
-74.0185	40.7069
-74.014	40.702
-74.0165	40.7031
-74.0158	40.7066
-74.0167	40.7039
-74.0167	40.7025
-74.0165	40.7022
-74.0168	40.7033
-74.0147	40.7038
-74.0165	40.7024
-74.0175	40.7037
-74.017	40.703
-74.016	40.7043
-74.0112	40.7015
-74.0164	40.7027
-74.0137	40.7031
-74.0152	40.7045
-74.017	40.7041
-74.0158	40.7091
-74.017	40.7042
-74.0097	40.7022
-74.0176	40.7036
-74.0164	40.7021
-74.0134	40.7051
-74.0154	40.7022
-74.1582	40.5551
-74.015	40.7016
-74.007	40.7048
-74.0148	40.7049
-74.0157	40.7017
-74.0144	40.7046
-74.0145	40.7013
-74.0163	40.7026
-74.0155	40.7092
-74.011	40.7081
-74.0165	40.7063
-74.0164	40.7034
-74.0151	40.7067
-74.015	40.7019
-74.0104	40.702
-74.0134	40.7052
-74.0171	40.7038
-74.0134	40.7016
-74.0171	40.704
-74.0173	40.7042
-73.9223	40.8173
-74.0169	40.7032
-74.0151	40.702
-74.0155	40.7022
-74.0145	40.7014
-74.0161	40.7026
-74.0153	40.7013
-74.0728	40.623
-74.0161	40.7026
-74.0136	40.7079
-74.0168	40.7034
-74.0145	40.7044
-74.0149	40.7064
-74.0165	40.7047
-74.0122	40.7013
-74.0163	40.703
-74.0098	40.7022
-74.0167	40.7025
-74.0159	40.7047
-74.0161	40.7026
-74.0182	40.7051
-74.014	40.7023
-74.0134	40.7071
-74.0145	40.704
-74.017	40.7032
-74.0156	40.7013
-74.017	40.7035
-74.0145	40.7033
-74.0138	40.7071
-74.0152	40.7021
-74.015	40.7038
-74.0139	40.7013
-74.0123	40.7014
-74.0149	40.7046
-73.8761	40.9984
-74.0094	40.7063
-74.0155	40.7015
-74.018	40.7045
-74.0154	40.7073
-74.015	40.7021
-74.0099	40.7058
-74.0191	40.7059
-74.0159	40.7043
-74.0144	40.7029
-74.018	40.7063
-74.0155	40.7016
-73.6099	40.6377
-74.0155	40.7049
-74.017	40.704
-74.0148	40.7071
-74.0153	40.7018
-74.0167	40.703
-74.0151	40.7069
-74.0144	40.7023
-74.0145	40.7014
-74.0149	40.7016
-74.017	40.7036
-74.016	40.7023
-74.0075	40.7032
-74.0159	40.7046
-74.0165	40.7025
-74.0147	40.7073
-74.0764	40.607
-74.0164	40.7045
-74.0145	40.7042
-74.0101	40.7068
-73.4335	40.8899
-74.0077	40.705
-74.0083	40.7078
-74.015	40.7017
-74.0154	40.7015
-74.0164	40.7028
-74.0167	40.7027
-74.0181	40.7051
-74.0141	40.7013
-74.0158	40.7016
-74.0163	40.7027
-74.0148	40.7042
-74.0066	40.7038
-74.0158	40.7077
-74.0164	40.7031
-74.0138	40.7049
-74.0185	40.709
-73.7732	41.0819
-74.011	40.7015
-73.9135	40.7123
-74.0074	40.705
-74.0171	40.7042
-74.0147	40.7017
-74.0094	40.7086
-74.0173	40.7084
-74.0144	40.7023
-74.0167	40.705
-74.0089	40.7032
-74.0147	40.7019
-74.016	40.7036
-74.0184	40.7054
-74.0166	40.7033
-74.0154	40.7079
-74.01	40.7018
-74.0156	40.705
-74.0156	40.7019
-74.0163	40.7023
-74.0168	40.703
-74.0166	40.7042
-74.011	40.7086
-74.0188	40.7071
-74.0168	40.705
-74.0154	40.7017
-74.0115	40.7043
-74.0158	40.702
-74.0068	40.7076
-74.0152	40.7054
-74.0162	40.7024
-74.0147	40.7018
-74.0148	40.7016
-74.0156	40.7019
-74.0179	40.704
-74.018	40.707
-74.0157	40.7073
-74.0174	40.7035
-74.0079	40.708
-74.0171	40.7038
-74.0165	40.703
-74.0139	40.7022
-74.0169	40.7027
-74.0145	40.7066
-74.0162	40.7033
-74.0161	40.7027
-74.0172	40.7046
-74.0148	40.7022
-74.0167	40.7037
-74.0174	40.7037
-74.0164	40.7029
-74.0126	40.7016
-74.0162	40.7045
-74.0158	40.7045
-74.0143	40.7063
-74.0064	40.7043
-74.0152	40.7015
-74.0165	40.7026
-74.0087	40.7029
-74.0147	40.7044
-74.0175	40.7077
-74.0133	40.702
-74.0162	40.7033
-74.0173	40.7044
-74.019	40.7067
-74.0155	40.7032
-74.0139	40.7013
-74.0077	40.7084
-74.0156	40.7018
-74.0173	40.7036
-74.0153	40.7017
-74.0061	40.7039
-74.0189	40.7067
-74.0167	40.7051
-74.0092	40.7022
-74.0079	40.7055
-74.015	40.7064
-74.0156	40.7018
-74.011	40.7044
-74.0161	40.7022
-74.0164	40.7025
-74.016	40.7017
-74.0165	40.7034
-74.016	40.7018
-74.0147	40.702
-74.0172	40.7029
-74.0157	40.7044
-74.0151	40.701
-74.0165	40.7031
-74.0171	40.7031
-74.0169	40.7049
-74.014	40.7064
-73.4831	40.8148
-74.0077	40.7031
-74.0166	40.7039
-74.0096	40.702
-73.626	40.693
-74.0173	40.7041
-74.0164	40.7023
-74.0147	40.7035
-74.01	40.702
-74.0156	40.7019
-74.0146	40.7017
-74.0145	40.7043
-74.0175	40.7039
-74.0168	40.7028
-74.0163	40.7043
-74.0147	40.7044
-74.0148	40.7062
-74.0177	40.7038
-74.0147	40.7019
-74.015	40.7013
-74.0163	40.7027
-74.0161	40.7064
-74.0134	40.7017
-74.0188	40.7051
-74.0136	40.7069
-74.0154	40.7017
-74.0157	40.7036
-74.0172	40.7029
-74.0178	40.7051
-74.0167	40.7024
-74.0138	40.7051
-74.0162	40.7029
-74.0135	40.7012
-74.0188	40.7065
-74.0063	40.7043
-74.0158	40.7048
-74.015	40.706
-74.0157	40.7016
-73.43	40.7183
-74.0163	40.7039
-74.017	40.7034
-74.0144	40.7045
-74.0151	40.7065
-74.0175	40.7046
-74.0154	40.7016
-74.0102	40.7077
-74.0161	40.7017
-74.0173	40.7038
-74.0136	40.7014
-74.0073	40.7051
-74.0171	40.7041
-74.0172	40.7042
-74.0168	40.7032
-74.0155	40.7021
-74.015	40.7018
-74.016	40.7066
-74.0155	40.7019
-74.0148	40.7016
-74.0143	40.7013
-74.0171	40.7036
-74.0161	40.7024
-74.0151	40.7011
-74.0162	40.7026
-74.0124	40.7014
-74.0128	40.7078
-74.017	40.705
-74.0168	40.7033
-74.0157	40.7043
-74.0156	40.7074
-74.0175	40.7044
-74.0156	40.7048
-74.0122	40.7015
-74.0173	40.7083
-74.0164	40.703
-74.008	40.7033
-74.016	40.7017
-74.0169	40.7028
-74.0183	40.7052
-74.0142	40.7022
-74.0116	40.704
-74.0157	40.7015
-74.0152	40.701
-74.0161	40.7017
-74.0147	40.702
-74.0165	40.7039
-74.0166	40.7048
-74.0148	40.7014
-74.0177	40.7045
-74.0167	40.7048
-74.0151	40.7022
-74.0081	40.7047
-74.0138	40.7021
-74.0152	40.707
-74.018	40.7057
-74.0157	40.7026
-74.0167	40.7057
-74.0154	40.7016
-74.0166	40.7025
-74.0148	40.7033
-74.0166	40.704
-74.0183	40.7043
-74.0153	40.7018
-74.015	40.7073
-74.0151	40.7017
-74.0171	40.7029
-74.0169	40.7048
-74.015	40.7063
-74.0176	40.704
-74.0084	40.7039
-74.0159	40.7023
-74.0157	40.7015
-74.0172	40.7036
-74.0165	40.7046
-74.0147	40.7032
-74.0109	40.7082
-74.0138	40.7067
-74.0076	40.7073
-74.0156	40.7016
-74.0166	40.7027
-74.0164	40.7027
-74.014	40.7014
-74.0108	40.7087
-74.0169	40.7027
-74.0168	40.7025
-74.0116	40.7046
-74.0159	40.7036
-74.0169	40.7033
-74.0069	40.7038
-74.0162	40.7033
-74.0148	40.7013
-74.0103	40.7017
-74.0163	40.703
-74.0192	40.7058
-74.0164	40.7043
-74.0171	40.7042
-74.015	40.7016
-74.0144	40.7023
-74.0092	40.7024
-74.0085	40.7032
-74.0137	40.7021
-74.0142	40.7016
-74.0154	40.7044
-74.0181	40.7053
-74.0175	40.7076
-74.007	40.7035
-74.0073	40.7072
-73.7057	40.7277
-74.0169	40.7033
-74.0185	40.7068
-74.0126	40.7015
-74.0156	40.7043
-74.0154	40.7017
-74.0136	40.7024
-74.0163	40.7024
-74.0165	40.703
-74.0146	40.7033
-74.0148	40.7058
-74.012	40.7015
-74.0125	40.7068
-74.0125	40.7014
-74.0062	40.7043
-74.0159	40.7018
-74.0154	40.7017
-74.016	40.702
-74.015	40.7063
-74.0161	40.7026
-74.0146	40.7016
-74.0165	40.7035
-74.0158	40.702
-74.0179	40.707
-74.015	40.7023
-74.0175	40.7068
-74.0159	40.7072
-74.0159	40.7049
-74.0161	40.7045
-74.0082	40.7077
-74.0166	40.7039
-74.0172	40.705
-73.8849	40.8125
-73.8451	40.7811
-74.0616	41.0792
-74.0175	40.7035
-74.0166	40.7023
-74.0171	40.7041
-74.0158	40.7024
-74.0149	40.7044
-74.0164	40.7024
-74.0069	40.7078
-73.9275	41.0533
-74.0173	40.7038
-74.0167	40.7029
-74.0163	40.704
-74.0146	40.7046
-74.0141	40.7015
-74.0152	40.7014
-74.0125	40.7013
-74.0167	40.7027
-74.0176	40.7035
-74.0157	40.7045
-74.016	40.7072
-74.0165	40.705
-74.0091	40.7055
-74.0164	40.7034
-74.0175	40.7038
-74.013	40.703
-74.0144	40.7036
-74.0166	40.7045
-73.9415	40.7475
-74.0097	40.7021
-74.0151	40.7063
-74.0069	40.7048
-74.0173	40.7048
-73.6348	40.7257
-74.0158	40.7018
-74.0162	40.7021
-74.0162	40.7026
-74.0164	40.7021
-74.0164	40.7034
-73.7092	40.7203
-74.0167	40.7048
-74.0151	40.702
-73.8133	40.9831
-74.0096	40.7022
-74.0062	40.7053
-74.0154	40.7066
-73.679	40.9915
-74.0133	40.7055
-74.0163	40.7035
-74.0149	40.7047
-73.8611	40.7299
-74.017	40.704
-74.0173	40.7042
-74.0155	40.7016
-74.0175	40.7043
-74.0145	40.7022
-74.0147	40.7028
-74.0099	40.7019
-74.0173	40.7029
-74.0155	40.702
-74.0146	40.7016
-74.0135	40.7053
-74.0166	40.7037
-74.0161	40.7024
-74.0155	40.7013
-74.0168	40.7029
-74.0169	40.7036
-74.0169	40.7042
-74.0147	40.7043
-74.0151	40.7071
-74.0175	40.7038
-74.0105	40.7038
-74.0078	40.703
-74.0152	40.7012
-74.0157	40.7092
-74.0163	40.7029
-74.0137	40.7015
-74.014	40.7024
-74.0148	40.7057
-74.0137	40.7012
-74.0175	40.7037
-74.0174	40.704
-74.0165	40.702
-74.0175	40.7049
-74.0149	40.7019
-74.0133	40.7058
-74.0162	40.7033
-74.0182	40.7088
-74.0145	40.7082
-73.8294	40.8897
-74.0148	40.7015
-74.019	40.7065
-74.0075	40.7052
-74.0143	40.7047
-74.0159	40.7018
-74.0092	40.7073
-74.019	40.7064
-74.0159	40.7078
-74.0135	40.7049
-74.0144	40.7042
-74.0168	40.7064
-74.0151	40.7011
-73.6355	40.7708
-74.0158	40.705
-74.017	40.7042
-74.0142	40.7027
-74.0174	40.7041
-74.0152	40.7019
-74.0162	40.7088
-74.0164	40.7031
-74.0151	40.7019
-74.0142	40.7014
-74.0144	40.7027
-74.0162	40.7022
-74.0149	40.7045
-74.0146	40.7075
-74.0165	40.704
-74.0154	40.7037
-74.0078	40.7029
-74.0152	40.7047
-74.0084	40.7028
-74.0149	40.7017
-74.0093	40.7024
-74.0169	40.7029
-74.0181	40.705
-74.0145	40.7013
-74.0159	40.7017
-74.0176	40.7036
-74.017	40.7035
-74.0148	40.7021
-74.0174	40.7084
-74.0133	40.7057
-74.0077	40.7029
-74.0145	40.7014
-73.6146	40.6861
-74.0191	40.706
-73.8233	40.8474
-74.017	40.7046
-74.0146	40.7018
-74.0181	40.7043
-74.0164	40.705
-74.0149	40.7022
-74.0142	40.7021
-74.0146	40.703
-73.3298	40.8943
-74.0157	40.7071
-74.0189	40.7056
-74.0128	40.708
-74.0178	40.706
-74.0181	40.7057
-74.0152	40.7016
-74.0147	40.7045
-74.0172	40.7029
-74.0173	40.7038
-74.0178	40.7045
-74.0141	40.7045
-74.0154	40.7016
-74.0151	40.707
-74.0164	40.704
-74.0161	40.7045
-74.0144	40.7014
-73.8733	41.0424
-74.0147	40.7016
-74.0159	40.7025
-74.0167	40.7031
-74.0139	40.7071
-74.0148	40.7017
-74.0142	40.7063
-74.0111	40.7036
-74.0068	40.7068
-74.0157	40.7016
-74.0163	40.7029
-74.014	40.7021
-74.0168	40.7026
-74.016	40.7042
-74.012	40.7028
-74.0155	40.7023
-74.0172	40.7036
-74.0126	40.7015
-74.0151	40.7011
-74.0174	40.7038
-74.0167	40.7029
-74.0144	40.7047
-74.0162	40.7065
-74.0068	40.7037
-74.0151	40.7016
-74.0168	40.7027
-74.0085	40.703
-74.0146	40.7045
-74.0179	40.7071
-74.0165	40.7033
-74.0188	40.7067
-74.0158	40.7019
-74.0146	40.7029
-74.0091	40.7022
-74.016	40.7026
-73.9114	40.8286
-74.0126	40.7014
-74.0182	40.7052
-74.0104	40.7043
-74.0068	40.7049
-73.885	40.8262
-74.0155	40.7018
-74.0097	40.708
-74.0161	40.7019
-74.011	40.7086
-74.0164	40.7023
-74.0146	40.7042
-74.0148	40.7018
-74.0152	40.7011
-74.0171	40.7035
-74.0159	40.7019
-74.0148	40.7021
-74.0164	40.7048
-74.0175	40.7032
-74.0145	40.704
-74.0176	40.7041
-74.0189	40.707
-74.0128	40.7024
-74.0068	40.7067
-74.0166	40.704
-74.0163	40.7033
-74.0156	40.7072
-74.0184	40.7069
-74.0166	40.7039
-74.0167	40.7025
-74.0139	40.7022
-74.0147	40.7039
-74.0166	40.7024
-74.0175	40.7037
-74.017	40.7029
-74.0185	40.7055
-74.016	40.7043
-74.0149	40.7047
-74.0126	40.7015
-74.0152	40.7013
-74.0168	40.7028
-74.0153	40.7045
-74.0171	40.7049
-74.016	40.7036
-74.014	40.7047
-74.0154	40.7023
-74.0149	40.7015
-74.0068	40.7049
-74.0108	40.7019
-74.0074	40.7053
-74.0163	40.705
-74.0157	40.7017
-74.0163	40.702
-74.0147	40.7014
-74.0164	40.7026
-74.0181	40.7087
-74.0164	40.7034
-74.0108	40.7016
-74.015	40.7018
-74.0095	40.7022
-74.0134	40.705
-74.0168	40.7039
-74.013	40.7022
-74.0171	40.7041
-74.0173	40.7042
-73.5598	40.6457
-73.5666	40.6929
-74.0138	40.7022
-74.0155	40.7022
-74.0161	40.7025
-74.0152	40.7014
-74.0162	40.7027
-74.0168	40.7034
-74.0145	40.7044
-74.0177	40.7036
-74.0171	40.7029
-74.0167	40.7047
-74.0168	40.7091
-74.0164	40.7027
-74.0167	40.7025
-74.0161	40.7047
-74.0161	40.7026
-74.0189	40.7049
-74.0139	40.7023
-74.0141	40.7068
-74.0175	40.7039
-73.4362	40.6084
-74.0165	40.7036
-74.0157	40.7013
-74.0152	40.7021
-74.0155	40.7035
-74.0137	40.708
-74.0139	40.7012
-74.0191	40.7063
-74.0122	40.7015
-74.0095	40.7063
-74.0155	40.7014
-74.0143	40.7066
-74.0181	40.7045
-74.0154	40.7073
-74.0145	40.703
-74.0155	40.7016
-74.0166	40.7048
-74.0171	40.704
-73.8963	40.6862
-74.0159	40.7025
-74.0155	40.7076
-74.0153	40.7017
-74.0166	40.703
-74.015	40.706
-73.6878	40.9736
-74.0143	40.7023
-74.0144	40.7015
-74.0174	40.7031
-74.016	40.7023
-74.0078	40.7029
-74.0158	40.7046
-74.0154	40.7013
-74.0166	40.7025
-74.0165	40.7073
-74.0164	40.7043
-74.0078	40.7029
-74.0112	40.7074
-74.015	40.7017
-74.0154	40.7015
-74.0164	40.7028
-74.0167	40.7027
-74.0181	40.7051
-74.0142	40.7013
-74.0158	40.7016
-74.0148	40.7043
-74.0063	40.7042
-74.0148	40.704
-74.0184	40.7087
-74.0111	40.7015
-74.0127	40.7014
-74.019	40.706
-73.4456	40.6903
-74.0171	40.7043
-74.0147	40.7017
-74.0133	40.7056
-74.0182	40.7043
-74.0162	40.7061
-74.0096	40.7037
-74.0147	40.7019
-74.0158	40.7036
-74.0069	40.7037
-74.0161	40.7061
-74.0124	40.7014
-74.0151	40.7065
-74.0156	40.7019
-74.0163	40.7023
-74.0168	40.703
-74.0142	40.7012
-74.0108	40.7088
-74.0188	40.7071
-73.529	40.7753
-74.0145	40.7028
-74.0154	40.7015
-74.0159	40.7021
-74.0151	40.707
-74.0064	40.7075
-74.0162	40.7024
-74.0142	40.7014
-74.0148	40.7016
-74.0171	40.7075
-74.017	40.7035
-74.0156	40.7019
-74.0179	40.704
-74.0137	40.707
-74.0168	40.7039
-74.0164	40.703
-74.0139	40.7022
-74.0171	40.7029
-74.0144	40.7067
-74.015	40.7037
-74.016	40.7046
-74.0148	40.7021
-74.0172	40.7031
-74.0168	40.7037
-74.0174	40.7037
-74.0165	40.703
-74.0162	40.7045
-74.0156	40.7046
-74.0168	40.7081
-74.0147	40.7047
-74.0148	40.7015
-74.0165	40.7026
-74.0146	40.7045
-74.0174	40.7069
-74.014	40.7014
-74.0131	40.7017
-74.015	40.7038
-74.0173	40.7045
-74.0155	40.7029
-73.8008	40.5868
-74.0137	40.7013
-74.0074	40.7072
-74.0157	40.7018
-74.0173	40.7035
-74.0157	40.7023
-74.0166	40.704
-74.0078	40.703
-74.0181	40.7059
-74.015	40.7062
-74.0157	40.7019
-74.016	40.7021
-74.0164	40.7025
-74.0098	40.7081
-74.0146	40.7043
-74.0159	40.7016
-74.0179	40.7055
-74.0159	40.7018
-74.0147	40.702
-74.0129	40.7021
-74.0173	40.703
-74.0164	40.7046
-74.014	40.702
-74.0162	40.7034
-74.0171	40.7032
-74.0164	40.705
-74.0076	40.7031
-74.0166	40.7039
-74.0096	40.7019
-74.0165	40.7023
-74.0165	40.7033
-74.0067	40.7036
-74.0143	40.7022
-74.0149	40.7036
-74.0062	40.7042
-74.0156	40.7018
-74.0137	40.7065
-74.0147	40.7017
-74.0133	40.7087
-74.0166	40.7037
-74.0162	40.7024
-74.0175	40.7039
-74.0168	40.7028
-74.0163	40.7043
-74.0148	40.7044
-74.0148	40.7061
-74.0144	40.7062
-74.0144	40.7021
-74.0151	40.7013
-74.0162	40.7028
-74.0134	40.7017
-74.0185	40.7047
-74.0141	40.7071
-74.0155	40.7036
-74.0125	40.7015
-74.0172	40.7028
-74.0154	40.704
-74.0146	40.7064
-74.0161	40.7028
-74.0061	40.7061
-74.0154	40.7019
-74.016	40.7088
-74.007	40.7047
-74.0148	40.7049
-74.0157	40.7017
-74.0144	40.7065
-74.0189	40.707
-74.016	40.7078
-74.0135	40.7049
-74.0144	40.7045
-74.0151	40.7065
-74.0184	40.7042
-74.0161	40.7018
-74.0139	40.705
-74.0174	40.7038
-74.0137	40.7013
-74.017	40.7042
-74.0172	40.7043
-74.0172	40.703
-74.0167	40.7032
-74.0155	40.7022
-74.0072	40.7073
-74.0166	40.7065
-74.0155	40.7019
-74.0149	40.7016
-74.0144	40.7015
-74.0161	40.7025
-73.5604	40.7395
-74.0151	40.7011
-74.0162	40.7025
-73.9043	40.8902
-74.0131	40.7078
-74.0165	40.7072
-74.0168	40.7033
-74.0156	40.7044
-74.0157	40.7048
-74.0169	40.709
-74.0164	40.703
-74.0078	40.7031
-74.0137	40.7068
-74.0156	40.7014
-73.5375	40.8509
-74.0169	40.7028
-74.0183	40.7052
-74.0142	40.7026
-74.0114	40.7057
-74.0086	40.7039
-74.0143	40.7067
-74.0139	40.7011
-74.0157	40.7016
-74.017	40.7041
-74.0161	40.7017
-74.0169	40.7035
-74.0148	40.702
-74.0167	40.7039
-74.0073	40.7087
-74.0153	40.7018
-74.0191	40.7062
-74.015	40.7011
-74.0178	40.7045
-74.0151	40.7021
-74.016	40.7066
-74.0191	40.7058
-74.0164	40.7033
-74.0163	40.7049
-73.844	40.8824
-74.0154	40.7016
-74.0166	40.7025
-73.3907	40.6907
-74.0166	40.704
-74.018	40.7043
-74.0146	40.7068
-74.0152	40.7016
-74.0172	40.703
-74.015	40.7065
-74.0176	40.704
-74.0126	40.7051
-74.017	40.7036
-74.0158	40.7023
-74.0073	40.7073
-74.0159	40.7017
-74.0172	40.7037
-74.0167	40.7046
-74.0147	40.7031
-74.0145	40.7041
-74.0092	40.7021
-74.0075	40.7072
-74.0156	40.7016
-74.0166	40.7027
-74.0164	40.7027
-74.0184	40.7053
-74.014	40.7014
-74.0105	40.7091
-74.0169	40.7027
-74.0121	40.7045
-74.0156	40.7036
-74.0164	40.7037
-74.0156	40.7035
-74.0151	40.7085
-74.015	40.7011
-74.0096	40.7019
-73.7708	40.7636
-74.0164	40.7043
-74.0171	40.7042
-74.0143	40.7023
-74.0147	40.7073
-74.0088	40.7031
-73.6803	40.7227
-74.0142	40.7015
-74.0148	40.7042
-74.018	40.7053
-74.0172	40.7075
-74.0171	40.7033
-74.0147	40.704
-74.0103	40.7017
-74.0153	40.7013
-74.0156	40.705
-74.0154	40.7017
-74.0104	40.7075
-74.0163	40.7024
-74.0165	40.703
-74.0151	40.7015
-74.0101	40.7045
-74.0126	40.7015
-74.0079	40.7056
-74.0154	40.7018
-74.0111	40.7044
-74.0094	40.7084
-74.016	40.702
-74.0149	40.7063
-74.016	40.7026
-74.0147	40.7019
-74.0147	40.7017
-74.0164	40.7022
-74.015	40.7023
-74.0177	40.7068
-74.0081	40.7047
-74.0159	40.7048
-74.0175	40.7035
-74.0161	40.7045
-74.0084	40.7077
-74.0165	40.7037
-74.0088	40.7042
-74.0155	40.7074
-74.0175	40.7036
-74.0166	40.7023
-74.0172	40.7045
-74.0144	40.7024
-73.5557	40.7812
-74.0166	40.7037
-74.0163	40.7024
-74.0173	40.7038
-74.0167	40.7029
-74.0178	40.7054
-74.0163	40.7045
-74.0159	40.7023
-74.0157	40.7045
-74.0147	40.7048
-74.0141	40.7017
-74.0133	40.705
-74.0166	40.7027
-74.0158	40.7046
-74.0151	40.7073
-74.013	40.7078
-74.0135	40.7024
-74.0169	40.7042
-74.0192	40.7066
-74.0156	40.7024
-73.2758	40.7604
-74.0172	40.7037
-74.0131	40.7036
-74.0154	40.7018
-74.0142	40.7046
-74.0099	40.702
-74.0136	40.7056
-74.0158	40.7018
-74.0161	40.7021
-74.0162	40.7026
-74.0164	40.7022
-74.0178	40.7053
-74.0161	40.7049
-74.0152	40.7021
-74.0117	40.7017
-74.0146	40.7074
-74.0133	40.7056
-74.0142	40.7012
-74.0162	40.7034
-74.0173	40.7038
-74.0076	40.7031
-74.017	40.704
-74.0174	40.7041
-74.0173	40.7043
-74.0178	40.7043
-74.0148	40.703
-74.0096	40.7021
-74.0165	40.702
-74.0155	40.702
-74.017	40.7037
-74.0161	40.7024
-74.0155	40.7014
-74.0168	40.7029
-74.0169	40.7036
-74.0163	40.704
-74.0147	40.7043
-74.015	40.707
-74.0175	40.7039
-74.0117	40.7036
-74.015	40.7012
-74.0163	40.7029
-74.0137	40.7015
-74.014	40.7024
-74.015	40.7055
-74.0134	40.7048
-74.017	40.7037
-74.0165	40.7021
-74.0148	40.7019
-74.014	40.7049
-74.0162	40.7032
-74.0137	40.7049
-74.0182	40.7088
-74.0137	40.7012
-74.0081	40.7046
-73.259	40.8931
-74.006	40.7042
-74.0159	40.7018
-74.0074	40.7052
-74.0144	40.7043
-74.0142	40.7015
-74.0155	40.7049
-74.0173	40.704
-74.014	40.7026
-74.0173	40.7038
-74.0151	40.7019
-74.0161	40.7088
-74.0149	40.7018
-74.0164	40.7023
-74.0151	40.7019
-74.0148	40.7015
-74.0142	40.7014
-74.0162	40.7023
-74.013	40.7031
-74.0164	40.7026
-74.0147	40.7075
-74.0154	40.7036
-74.0183	40.7043
-74.0153	40.7047
-74.0157	40.7092
-74.0077	40.7034
-74.0162	40.7019
-74.0168	40.7029
-74.0181	40.705
-74.0145	40.7014
-74.0116	40.7047
-74.0156	40.7015
-74.0172	40.7029
-74.0169	40.7035
-74.0148	40.7021
-74.0133	40.7058
-74.0095	40.7019
-74.0137	40.7012
-74.0169	40.7045
-74.0147	40.7018
-74.0178	40.7043
-74.0167	40.7046
-74.0149	40.7022
-74.0142	40.702
-74.0143	40.7026
-74.0155	40.7071
-74.0189	40.7057
-74.0169	40.7033
-74.0181	40.7061
-74.0155	40.7013
-74.0179	40.7078
-74.0151	40.7017
-74.0165	40.7024
-74.0173	40.7035
-74.0178	40.7045
-74.0154	40.7016
-74.0176	40.704
-74.016	40.7046
-74.0061	40.704
-74.0144	40.7014
-74.017	40.7035
-74.0158	40.7024
-74.0178	40.706
-74.0137	40.7053
-74.0168	40.7031
-74.0148	40.7018
-74.008	40.7079
-74.0169	40.7038
-74.0166	40.7028
-74.0177	40.7037
-74.0163	40.7029
-74.014	40.7021
-74.0112	40.7083
-74.0168	40.7026
-74.016	40.7067
-74.0108	40.7042
-74.0162	40.704
-74.0168	40.7033
-74.0153	40.7022
-74.0175	40.7035
-74.0151	40.7011
-74.0079	40.7055
-74.0163	40.7029
-74.0091	40.7022
-74.019	40.7057
-74.0168	40.7041
-73.6182	40.8111
-74.0178	40.704
-74.015	40.7016
-74.0168	40.7027
-74.0151	40.7092
-74.0091	40.7033
-74.0146	40.7045
-74.0176	40.7068
-74.017	40.7033
-74.0143	40.7029
-74.0063	40.7043
-74.0151	40.7045
-74.0153	40.7018
-74.015	40.7047
-74.0155	40.7018
-74.0139	40.7024
-74.0144	40.7027
-74.0162	40.703
-74.0145	40.7029
-74.0126	40.705
-74.0148	40.7015
-74.0183	40.7053
-74.0102	40.7044
-74.0136	40.7068
-74.0156	40.7018
-74.0104	40.7033
-74.0161	40.7019
-74.0162	40.7024
-74.0071	40.7064
-74.0145	40.7044
-74.0148	40.7018
-74.0152	40.7011
-74.017	40.7035
-74.0159	40.7019
-74.0146	40.7021
-74.0162	40.7049
-73.4175	40.7599
-74.0171	40.7041
-74.0083	40.7077
-74.0167	40.7041
-74.0164	40.7032
-74.0159	40.7077
-74.0165	40.7049
-74.0166	40.7039
-74.0167	40.7024
-74.0148	40.7017
-74.017	40.7037
-74.0165	40.7025
-74.0175	40.7039
-74.0169	40.7029
-74.016	40.7043
-74.016	40.7047
-74.0145	40.7047
-74.0146	40.7017
-74.0113	40.7015
-74.0152	40.7013
-74.0168	40.7028
-74.0152	40.7045
-74.0172	40.7049
-74.0171	40.7034
-74.0164	40.7022
-74.0172	40.7037
-74.014	40.7049
-74.0153	40.7022
-74.0128	40.7013
-73.5477	40.6581
-73.7696	41.0412
-74.0155	40.705
-74.0167	40.7047
-74.0081	40.7047
-74.0158	40.7017
-74.0158	40.7022
-74.0142	40.7012
-74.0163	40.7025
-74.0171	40.7028
-74.0158	40.7067
-74.0122	40.7016
-74.0149	40.7018
-74.0127	40.7017
-74.0094	40.7022
-74.0141	40.7046
-74.0151	40.7046
-74.0171	40.7041
-74.0174	40.704
-74.0152	40.7021
-74.014	40.7023
-74.0176	40.7042
-74.0155	40.7022
-74.0168	40.7037
-74.016	40.7025
-74.0124	40.7028
-74.0161	40.7026
-74.0135	40.7079
-74.0168	40.7034
-74.0145	40.7043
-74.0167	40.7047
-74.0164	40.7027
-74.0091	40.7025
-73.6427	40.5942
-74.0175	40.7039
-74.0154	40.7047
-74.0188	40.705
-74.0139	40.7023
-74.0149	40.7056
-74.0175	40.7039
-74.0137	40.7047
-74.0167	40.7035
-74.0157	40.7013
-74.0173	40.7048
-74.017	40.7035
-74.0151	40.7021
-74.0156	40.7035
-74.0107	40.7069
-74.0135	40.708
-74.0166	40.7042
-74.0151	40.7047
-74.0094	40.7065
-74.0155	40.7014
-74.0181	40.7045
-74.0156	40.7073
-74.019	40.7059
-74.0113	40.7075
-74.0164	40.7034
-74.0145	40.7031
-74.0155	40.7016
-74.0165	40.7048
-74.0171	40.704
-73.847	41.0377
-74.016	40.7024
-74.0151	40.7073
-74.0153	40.7018
-74.0149	40.7017
-74.0166	40.703
-74.015	40.7067
-74.0143	40.7024
-74.0144	40.7015
-74.0173	40.7032
-74.0171	40.7036
-74.016	40.7023
-74.0159	40.7046
-74.0155	40.7013
-74.0165	40.7025
-74.0171	40.7074
-74.0164	40.7044
-74.0146	40.7036
-74.0145	40.7042
-73.8858	40.8799
-74.0178	40.704
-74.015	40.7017
-74.0155	40.7015
-74.0165	40.7028
-74.0166	40.7027
-74.0181	40.7051
-74.0142	40.7013
-74.0113	40.706
-74.0158	40.7016
-74.017	40.704
-74.0068	40.7036
-74.0148	40.7043
-74.0163	40.7081
-74.0092	40.702
-74.0144	40.7013
-73.7176	40.6884
-74.0166	40.704
-74.0172	40.7042
-74.0147	40.7017
-74.0092	40.7082
-74.0182	40.7043
-74.0164	40.7052
-74.0087	40.7034
-74.0146	40.702
-74.0147	40.7033
-74.0179	40.7054
-74.0169	40.7033
-74.0125	40.7085
-74.0144	40.7034
-74.0161	40.706
-74.0123	40.7012
-74.0155	40.7037
-74.0156	40.705
-74.0154	40.7018
-74.014	40.7062
-74.0163	40.7023
-74.0169	40.703
-74.0146	40.7014
-73.3522	40.7968
-74.0187	40.7071
-74.0183	40.7088
-74.0068	40.7079
-74.0154	40.7015
-74.0157	40.7021
-74.0155	40.7073
-74.016	40.7023
-74.014	40.7021
-74.0143	40.7014
-74.0148	40.7016
-74.0155	40.702
-74.0175	40.7076
-74.0179	40.7041
-74.015	40.7048
-74.0069	40.7067
-74.0172	40.7036
-73.8248	40.8477
-74.0164	40.7029
-74.0139	40.7021
-74.017	40.7029
-73.538	40.8332
-74.0152	40.7036
-74.0162	40.7028
-74.0184	40.7072
-74.015	40.7023
-74.0173	40.703
-74.0084	40.7051
-74.0176	40.7036
-73.7771	40.9036
-74.0174	40.7037
-74.0164	40.703
-73.277	40.9057
-74.0063	40.7043
-74.0159	40.7087
-74.0143	40.7062
-74.0143	40.7016
-74.0149	40.7015
-74.0166	40.7026
-74.0138	40.7022
-74.0147	40.7044
-74.0168	40.7051
-74.0164	40.7047
-74.014	40.7023
-74.0142	40.7027
-74.0162	40.7037
-74.0071	40.7038
-74.0187	40.7067
-74.0155	40.7026
-74.0157	40.7018
-74.0175	40.7036
-74.0151	40.7018
-74.013	40.7013
-73.4956	40.5978
-74.0158	40.7044
-74.008	40.7056
-74.0134	40.7059
-74.0157	40.7019
-73.6867	41.0091
-74.016	40.7022
-74.0164	40.7026
-74.0146	40.7043
-74.0156	40.7014
-74.0165	40.7034
-74.0159	40.7018
-74.0148	40.702
-74.0169	40.7041
-74.0138	40.7016
-74.0173	40.7034
-74.0169	40.7031
-74.0156	40.7071
-74.0187	40.7047
-74.0062	40.7042
-74.0077	40.7032
-74.0167	40.7039
-74.0094	40.7016
-74.0165	40.7023
-74.0178	40.7042
-74.017	40.7033
-74.0147	40.7036
-74.0156	40.7018
-74.0146	40.7017
-74.017	40.7037
-74.0162	40.7023
-74.0106	40.7037
-74.0174	40.7039
-74.0168	40.7028
-74.0162	40.7044
-74.0148	40.7044
-74.0142	40.7062
-74.0146	40.702
-74.0102	40.7017
-74.0164	40.7026
-74.0133	40.7018
-74.0182	40.7049
-74.0144	40.7066
-74.0162	40.7037
-74.0173	40.7029
-74.0178	40.7052
-74.0146	40.7063
-74.0165	40.7071
-74.0161	40.7028
-74.0067	40.7068
-74.0155	40.7019
-74.0167	40.7049
-74.0157	40.7017
-74.0088	40.7075
-73.8777	40.8597
-74.01	40.7078
-74.014	40.702
-74.0144	40.7045
-74.0178	40.7043
-73.7121	41.0623
-74.009	40.707
-74.0138	40.7052
-74.0172	40.7038
-74.0131	40.702
-74.017	40.7042
-73.9431	40.8499
-74.0174	40.7042
-74.0169	40.7032
-74.0155	40.702
-74.015	40.7018
-74.0155	40.7019
-74.0145	40.7015
-74.0065	40.707
-74.0169	40.7036
-74.0161	40.7025
-74.0153	40.7011
-74.0162	40.7026
-74.0127	40.7013
-74.0129	40.7078
-74.0168	40.7033
-74.0146	40.7043
-74.0184	40.7044
-74.0158	40.7048
-74.0123	40.7015
-74.0178	40.7077
-74.0163	40.7031
-74.0156	40.7014
-74.0169	40.7028
-74.0181	40.705
-74.0143	40.7025
-74.0146	40.7067
-74.0138	40.7011
-74.0157	40.7015
-74.0176	40.7037
-74.0157	40.7013
-74.0148	40.702
-74.0174	40.7068
-73.5829	40.8413
-74.0152	40.7017
-74.0061	40.7041
-74.014	40.7011
-74.0178	40.7045
-74.0165	40.7052
-74.0149	40.7022
-74.0133	40.705
-74.0156	40.7018
-74.0153	40.7016
-74.0166	40.7081
-74.0166	40.7025
-74.0167	40.7041
-74.0147	40.7069
-74.0151	40.7018
-74.0171	40.7031
-74.015	40.7068
-74.0176	40.704
-74.0148	40.7015
-74.0166	40.7036
-74.0161	40.7022
-74.0154	40.7012
-74.017	40.7038
-74.014	40.7072
-74.0165	40.7046
-74.0074	40.7073
-74.0156	40.7016
-74.0092	40.7025
-74.0166	40.7027
-74.0164	40.7026
-74.0184	40.7053
-74.014	40.7014
-74.0106	40.7092
-74.0169	40.7027
-74.0151	40.7016
-74.0153	40.7037
-74.0094	40.7021
-74.0168	40.7034
-73.8838	40.7677
-74.0159	40.7035
-74.0174	40.7034
-74.015	40.7011
-74.0097	40.7019
-73.9082	40.7629
-74.0117	40.7034
-74.0191	40.7058
-74.0164	40.7043
-74.017	40.7042
-74.0133	40.7055
-74.0143	40.7022
-74.0146	40.7074
-74.0094	40.7035
-74.0142	40.7015
-74.015	40.7044
-74.0172	40.7074
-74.0137	40.7022
-74.0069	40.7038
-73.8453	41.0251
-74.0144	40.7032
-74.0145	40.704
-74.0185	40.7068
-74.0127	40.7015
-74.0152	40.701
-74.0151	40.7064
-74.0154	40.7017
-74.0163	40.7023
-74.0166	40.703
-74.0146	40.7061
-74.0152	40.7017
-74.0119	40.7075
-74.0189	40.707
-74.0127	40.7015
-74.0154	40.7016
-74.0094	40.7084
-74.0159	40.702
-74.0149	40.7065
-74.0164	40.7022
-74.0147	40.7019
-74.0148	40.7016
-74.0179	40.7062
-74.0165	40.7035
-74.0158	40.702
-74.0164	40.7022
-74.0151	40.7023
-74.0137	40.7068
-74.0085	40.7051
-74.0157	40.7048
-74.0122	40.7047
-74.0165	40.7038
-74.0151	40.7084
-74.006	40.7044
-74.0134	40.7071
-74.0175	40.7036
-74.017	40.7028
-74.0164	40.7023
-74.015	40.7045
-74.0143	40.7025
-74.0169	40.7037
-74.0173	40.7037
-74.0166	40.7029
-74.0164	40.7045
-74.0157	40.7045
-74.0142	40.7062
-74.0157	40.7019
-74.0141	40.7015
-74.0152	40.7014
-74.0166	40.7027
-74.0086	40.703
-74.0158	40.7046
-74.0151	40.7073
-74.0131	40.7021
-74.0164	40.7034
-74.0141	40.7014
-74.0172	40.7037
-74.0129	40.7012
-74.0151	40.7091
-74.0142	40.7047
-74.0104	40.7017
-74.0151	40.7063
-74.009	40.7041
-74.0186	40.7056
-74.0156	40.7071
-74.0157	40.7018
-74.0162	40.7021
-74.0165	40.7025
-74.0164	40.7022
-74.0164	40.7034
-74.0151	40.7068
-74.0159	40.7068
-74.0152	40.7021
-74.0092	40.7023
-74.0151	40.7067
-74.0132	40.7057
-74.0162	40.7034
-74.0068	40.7036
-74.017	40.7041
-74.0172	40.7042
-74.0154	40.7022
-73.4678	40.8595
-74.0148	40.7031
-74.0102	40.7019
-74.0155	40.7021
-74.0146	40.7016
-74.014	40.7071
-74.0161	40.7024
-74.0154	40.7012
-74.0168	40.7029
-73.9491	40.6991
-74.0171	40.704
-74.017	40.7043
-74.0147	40.7045
-74.0149	40.707
-74.0175	40.7039
-74.0175	40.7047
-74.0078	40.703
-74.0163	40.7029
-74.0136	40.7015
-74.0187	40.7049
-74.0141	40.7025
